File Path,Feature_0,Feature_1,Feature_2,Feature_3,Feature_4,Feature_5,Feature_6,Feature_7,Feature_8,Feature_9,Feature_10,Feature_11,Feature_12,Feature_13,Feature_14,Feature_15,Feature_16,Feature_17,Feature_18,Feature_19,Feature_20,Feature_21,Feature_22,Feature_23,Feature_24,Feature_25,Feature_26,Feature_27,Feature_28,Feature_29,Feature_30,Feature_31,Feature_32,Feature_33,Feature_34,Feature_35,Feature_36,Feature_37,Feature_38,Feature_39,Feature_40,Feature_41,Feature_42,Feature_43,Feature_44,Feature_45,Feature_46,Feature_47,Feature_48,Feature_49,Feature_50,Feature_51,Feature_52,Feature_53,Feature_54,Feature_55,Feature_56,Feature_57,Feature_58,Feature_59,Feature_60,Feature_61,Feature_62,Feature_63,Feature_64,Feature_65,Feature_66,Feature_67,Feature_68,Feature_69,Feature_70,Feature_71,Feature_72,Feature_73,Feature_74,Feature_75,Feature_76,Feature_77,Feature_78,Feature_79,Feature_80,Feature_81,Feature_82,Feature_83,Feature_84,Feature_85,Feature_86,Feature_87,Feature_88,Feature_89,Feature_90,Feature_91,Feature_92,Feature_93,Feature_94,Feature_95,Feature_96,Feature_97,Feature_98,Feature_99,Feature_100,Feature_101,Feature_102,Feature_103,Feature_104,Feature_105,Feature_106,Feature_107,Feature_108,Feature_109,Feature_110,Feature_111,Feature_112,Feature_113,Feature_114,Feature_115,Feature_116,Feature_117,Feature_118,Feature_119,Feature_120,Feature_121,Feature_122,Feature_123,Feature_124,Feature_125,Feature_126,Feature_127
types/INTP_Balzack/img_1.png,-2.6648542881011963,-1.2289111614227295,0.1324034333229065,1.5372077226638794,0.2761690616607666,-1.6698709726333618,-0.979844868183136,-1.377681851387024,-1.5701308250427246,1.0297996997833252,-1.243866205215454,-1.0023468732833862,1.0906683206558228,-0.11754277348518372,1.1900180578231812,-1.1901124715805054,-0.9419370889663696,-1.1558912992477417,-1.1929848194122314,0.5369623303413391,0.8403502702713013,-0.44153884053230286,1.2265678644180298,1.5879366397857666,1.116026759147644,0.40477892756462097,0.2681610882282257,0.304958701133728,1.206329107284546,-0.9635977745056152,0.7435551881790161,-0.7317808866500854,0.2817656099796295,0.30954617261886597,-0.18303892016410828,-0.6249159574508667,-0.5005724430084229,0.1519242823123932,0.11728542298078537,-0.6322804689407349,-0.7170788645744324,0.2431671917438507,-1.2025623321533203,0.031284235417842865,-0.26816242933273315,0.030510200187563896,-0.8066365122795105,0.5200037956237793,1.6195083856582642,-1.135125994682312,-0.23625855147838593,-0.02666991762816906,-0.23043090105056763,-1.3853542804718018,-0.7706137895584106,0.04190846532583237,1.6305935382843018,-1.1109718084335327,0.7709853649139404,0.6604915261268616,0.028150126338005066,0.22866640985012054,-2.430756092071533,-0.46551239490509033,-2.04110050201416,-0.519447386264801,0.7538731098175049,-0.9779753684997559,0.2502245306968689,0.5123435258865356,-1.0362699031829834,-1.1281979084014893,0.6253086924552917,-0.6673313975334167,1.034024953842163,-0.12880505621433258,0.8514007329940796,0.7424742579460144,-1.4176753759384155,-0.013537906110286713,-0.14574655890464783,-0.09187427163124084,-1.3460620641708374,0.6360172629356384,0.27162525057792664,1.9617401361465454,-0.16730141639709473,0.3626749515533447,-1.793513298034668,0.4917505979537964,2.459764242172241,0.7385613918304443,-0.012580536305904388,0.06780306249856949,0.5445933938026428,0.7533180713653564,0.4871695935726166,0.794846773147583,0.4103981554508209,-1.406976342201233,-0.8677643537521362,-1.2280080318450928,0.737707793712616,-0.4945228099822998,2.079054355621338,-1.5405142307281494,0.9846017956733704,-0.11454281210899353,0.47795218229293823,-0.5248592495918274,-1.1674554347991943,-1.2738757133483887,-1.1389399766921997,0.2740071713924408,0.7398445010185242,0.3636816740036011,0.27048856019973755,0.07789035886526108,-0.6173989176750183,2.057443380355835,1.5452781915664673,-2.1433143615722656,-2.098755121231079,-0.021263757720589638,0.7168821096420288,-1.6583234071731567,0.5906707644462585,1.2167471647262573
types/INTP_Balzack/img_2.png,-0.49645206332206726,0.26904213428497314,-0.42041119933128357,1.5859692096710205,2.275136947631836,-0.31882938742637634,0.8754806518554688,-0.7212847471237183,-0.14685125648975372,1.3570001125335693,-0.06107841804623604,-2.5210540294647217,0.5684210658073425,0.5003303289413452,0.606803297996521,-1.5056159496307373,-0.5579453706741333,-0.8821767568588257,-0.8175677061080933,1.380462884902954,-0.6339738368988037,1.3663395643234253,0.35752516984939575,1.178550124168396,1.556756615638733,0.7980875372886658,0.5304480195045471,-0.3801969289779663,-0.0627601146697998,-1.191131353378296,1.2225992679595947,-1.267503261566162,-0.1913350522518158,-0.3108106851577759,1.9928652048110962,0.4814491271972656,0.7036402821540833,-0.4538258910179138,1.258427381515503,0.48310068249702454,-0.6093970537185669,0.32942235469818115,0.33729416131973267,0.07510602474212646,0.3610774278640747,-0.6535489559173584,-1.8883399963378906,1.1780109405517578,0.044808730483055115,-0.6182923316955566,-0.12935036420822144,1.0584428310394287,-0.8847741484642029,-0.7172141671180725,-1.6251366138458252,-0.5083224773406982,2.3846633434295654,-1.0765777826309204,0.7956615686416626,-1.3038485050201416,2.1805520057678223,1.0662447214126587,-1.345574975013733,0.09618189930915833,-2.187941551208496,1.0533132553100586,0.1961115598678589,-0.8727571964263916,0.002466809004545212,-0.0902743935585022,-0.381213903427124,-2.2073230743408203,1.1530523300170898,-0.22355961799621582,0.30859553813934326,0.7136161923408508,2.0377612113952637,0.8155847191810608,-0.7286880016326904,1.2484067678451538,0.061154887080192566,2.2601914405822754,-0.8227631449699402,1.3122750520706177,0.8187777400016785,0.09970024228096008,1.1078284978866577,-0.13677048683166504,0.046040378510951996,0.849533200263977,-0.8565129041671753,1.618622064590454,-0.49570244550704956,1.2781836986541748,-0.5912724137306213,0.04094982519745827,-0.22635897994041443,-0.6071122288703918,-1.2347385883331299,-0.17293807864189148,-1.155724048614502,-0.8732227087020874,-0.8700897097587585,-1.2127224206924438,1.3280233144760132,-0.3581864833831787,1.2593580484390259,0.367788702249527,1.7519421577453613,-0.5057932138442993,0.27857959270477295,-1.3943123817443848,0.5934106111526489,0.5892425775527954,0.17007865011692047,1.888588786125183,-0.20862849056720734,-0.4486713409423828,-0.05367594212293625,1.6832352876663208,0.761452317237854,-0.4156836271286011,-1.9128724336624146,-0.7152794003486633,1.1477925777435303,-0.6087725758552551,1.3053339719772339,-1.2695132493972778
types/INTP_Balzack/img_3.png,1.1125587224960327,1.3587510585784912,-0.5421081185340881,0.44032666087150574,2.9685592651367188,-1.8769727945327759,2.4569082260131836,-2.551500082015991,-1.4866052865982056,1.8023767471313477,-1.5375360250473022,-0.7366582751274109,0.09418267011642456,-1.5520458221435547,0.0912625715136528,-1.191503882408142,-0.2636544406414032,-0.3617085814476013,-0.8284869194030762,-0.6634795665740967,1.2881474494934082,0.7268586754798889,-0.3749244511127472,1.0100491046905518,-0.3078037202358246,0.2589547038078308,-0.07668192684650421,0.07370860129594803,-0.6497545838356018,-0.08953656256198883,1.4165635108947754,-0.7071999311447144,-1.3116958141326904,1.4021353721618652,-0.7212703227996826,-1.4524638652801514,0.38663482666015625,-0.1670522689819336,0.47967612743377686,-0.13989053666591644,-0.3271181881427765,-0.6225772500038147,1.7240103483200073,1.3502291440963745,-1.9242147207260132,1.2578257322311401,-0.26390138268470764,-0.09936964511871338,-1.5853840112686157,-1.2918490171432495,-1.9252938032150269,0.2738836407661438,-1.123819351196289,0.5277813673019409,0.2628742456436157,-0.07818397134542465,0.4500579237937927,-1.0511361360549927,-0.19663628935813904,-1.0810521841049194,-1.6100234985351562,-0.286980539560318,-2.27593994140625,0.21370472013950348,-0.7011465430259705,1.3036640882492065,-1.0436830520629883,0.055103082209825516,-0.8080763220787048,1.2706537246704102,0.9828952550888062,0.2748764753341675,1.2924684286117554,-1.283110499382019,0.015874702483415604,1.8255901336669922,1.104751706123352,0.2735775411128998,-0.8505148887634277,0.29227322340011597,-0.3329158425331116,1.9784365892410278,0.18789203464984894,-0.39060965180397034,0.46278753876686096,1.5138643980026245,-1.1123051643371582,-0.3809252381324768,0.8614702224731445,1.1996513605117798,0.8838301301002502,-0.5366500616073608,0.1590050607919693,-0.31891342997550964,2.536144971847534,-2.3972671031951904,0.680988609790802,0.017437947914004326,0.9916946291923523,-1.2334108352661133,0.4822026491165161,-0.7721393704414368,-0.9215179681777954,0.045272089540958405,-0.4669259190559387,-0.2798921465873718,1.889170527458191,-0.3692915737628937,0.29544368386268616,-0.6501031517982483,-1.1341052055358887,0.44707930088043213,-0.3306017518043518,0.9520896077156067,0.14429764449596405,0.12270259857177734,-1.3746390342712402,0.7733903527259827,0.9598984122276306,1.0675619840621948,1.709843635559082,1.437782883644104,-0.19565439224243164,-1.435329556465149,-0.7932489514350891,-0.875200629234314,1.7459534406661987,0.5234104990959167
types/INTP_Balzack/img_7.png,-2.1812424659729004,-0.7163534164428711,0.29026874899864197,0.008011259138584137,-0.6927983164787292,-1.0234426259994507,1.0838730335235596,0.20838528871536255,-0.19273686408996582,0.9804577827453613,-0.5238054990768433,1.1196328401565552,-0.1135181337594986,1.540940284729004,0.019860565662384033,0.15737397968769073,0.5164076089859009,-1.2631129026412964,0.5473273992538452,-1.0889674425125122,0.8231548070907593,-1.0098230838775635,-0.35303935408592224,0.5702810287475586,0.13600865006446838,0.7651878595352173,0.6509978175163269,0.28925812244415283,1.9205940961837769,-0.6935141086578369,-0.8740214109420776,-0.8206686973571777,0.20356279611587524,0.11650698632001877,1.2634860277175903,0.15067903697490692,-3.018449544906616,1.0555288791656494,0.2846546769142151,0.5325607061386108,-0.19450578093528748,1.5842841863632202,0.5351625680923462,-0.07019425928592682,-1.2306625843048096,-0.42314574122428894,-1.4838039875030518,-0.261513888835907,-1.0209249258041382,-0.3910181224346161,-0.6199613213539124,2.6787781715393066,0.7717443704605103,-1.0585755109786987,0.45576444268226624,0.42777156829833984,1.7927967309951782,1.5921036005020142,0.8442451357841492,-0.7424149513244629,-0.23257702589035034,-0.06136244535446167,-0.22991548478603363,0.2554946541786194,0.4402264356613159,-1.070455551147461,0.12369656562805176,2.1226484775543213,-1.0594630241394043,0.4477744996547699,-0.4752775728702545,0.9722608327865601,-0.27837544679641724,-1.4411823749542236,0.11046743392944336,-0.1289701759815216,1.2897120714187622,-0.5020620822906494,-1.5233176946640015,-1.2558764219284058,0.21815645694732666,0.8889468908309937,-0.9452905058860779,-3.0061933994293213,-1.9766925573349,0.43194231390953064,-1.2958991527557373,0.6407885551452637,-1.8064881563186646,-0.47778022289276123,0.5178402662277222,0.1499003916978836,1.4531723260879517,0.8243564367294312,0.6499393582344055,-1.633731484413147,-0.5789538025856018,0.8646199703216553,1.2414119243621826,1.060916781425476,0.5383532047271729,0.7559959292411804,0.24107709527015686,0.9823747277259827,0.24567118287086487,-0.6144210696220398,0.18382582068443298,-0.757075309753418,-0.4413496255874634,-0.20143704116344452,0.9890841841697693,0.7280992269515991,1.0578250885009766,1.531351089477539,-0.14990882575511932,-0.6778213977813721,1.3646366596221924,1.040095329284668,1.6318897008895874,1.7047113180160522,-0.0036148950457572937,1.846760630607605,-0.0334605872631073,-2.2321853637695312,0.9635812640190125,1.2550846338272095,1.982297658920288,0.8121386766433716
types/INTP_Balzack/img_6.png,-0.8074958324432373,-0.021120630204677582,0.09311442077159882,0.015615947544574738,1.7681853771209717,-0.543194055557251,-0.08261389285326004,-0.7916824817657471,1.6851751804351807,0.10056953132152557,0.18884265422821045,0.04338228702545166,0.6608648300170898,-0.10006944835186005,-0.8800822496414185,0.2859407663345337,-0.6190887689590454,-1.0205820798873901,-0.1754409670829773,0.17860499024391174,0.6256523132324219,-0.8322217464447021,0.10106386989355087,0.4249762296676636,0.6993806958198547,-1.370516061782837,1.6769169569015503,0.0712122768163681,-0.1755020022392273,-0.4873683750629425,-1.9517265558242798,0.45156130194664,-2.2602651119232178,-0.21502238512039185,-0.778571605682373,-0.14430469274520874,0.002593059092760086,-0.019740819931030273,0.08092956244945526,0.34099727869033813,1.7876094579696655,-0.5656536221504211,0.45681920647621155,2.8107385635375977,0.03797833248972893,-1.18972647190094,-1.0174180269241333,-1.1859058141708374,0.1737518459558487,-1.280487060546875,-2.2244515419006348,1.0907776355743408,-1.1929881572723389,-0.26615267992019653,-1.4442497491836548,-1.3713068962097168,1.7894177436828613,0.37828290462493896,-1.8886860609054565,-0.8444600701332092,-0.12719514966011047,1.1814099550247192,-2.236828327178955,-0.22057253122329712,-1.9583539962768555,2.6638526916503906,0.9466968178749084,-0.20688624680042267,-0.37121787667274475,-1.5007323026657104,-0.5767135620117188,0.9839072227478027,0.14137688279151917,1.3543658256530762,-0.3129216730594635,0.5215404033660889,0.561888575553894,0.9393582344055176,-0.5536890029907227,-0.48027998208999634,-0.6047733426094055,1.1729762554168701,0.48901626467704773,-0.4401881694793701,-0.30305004119873047,-0.409973680973053,0.7536230087280273,-0.9385733008384705,-1.3814918994903564,0.5696457028388977,0.6880506873130798,-0.9732723236083984,0.5117267370223999,-0.3564065992832184,0.2987862825393677,0.6830046772956848,-0.8076575398445129,0.17800840735435486,-1.8834803104400635,-0.7295734286308289,-0.9926096796989441,-0.23953017592430115,-1.0966063737869263,-1.9227324724197388,0.39355558156967163,-0.3305026888847351,0.9287312626838684,-0.7366201877593994,0.24934810400009155,0.6608882546424866,0.5631768107414246,0.17241156101226807,2.5127623081207275,-1.2314136028289795,-1.206703543663025,2.1841752529144287,-0.43164557218551636,0.24836988747119904,-1.1488561630249023,0.8419634699821472,-0.009527221322059631,0.8411060571670532,0.8007279634475708,-0.4505223333835602,1.6114518642425537,-0.9632070064544678,0.9995793700218201,-0.19609318673610687
types/INTP_Balzack/img_4.png,-1.654945731163025,0.38910427689552307,-0.8220037221908569,0.8468084931373596,1.3329393863677979,-1.2447068691253662,0.6803998351097107,0.4278053641319275,-0.013231853023171425,1.4236127138137817,-0.47013190388679504,-1.0579705238342285,0.03454078733921051,-2.8175454139709473,1.9671529531478882,-0.44422978162765503,-1.2048510313034058,-0.6101945638656616,-0.8391010761260986,0.448321133852005,-0.45669975876808167,0.32433533668518066,-0.04023128002882004,0.8447798490524292,0.22468876838684082,-0.10609398037195206,1.2597426176071167,1.130336880683899,0.05476284772157669,-0.9582861661911011,-2.1662893295288086,-0.6465600728988647,-2.107387065887451,0.8476912975311279,0.16784551739692688,-1.5729786157608032,-0.768875777721405,-1.384749412536621,0.658238410949707,-1.9637885093688965,-1.1236218214035034,-0.7411098480224609,-1.5252515077590942,1.769090175628662,0.5684332847595215,-1.4121837615966797,-0.5904889702796936,0.3059949278831482,1.0778933763504028,-0.6073915958404541,-0.47747933864593506,2.0929341316223145,-1.3689148426055908,1.011332631111145,-1.2267911434173584,-1.9436421394348145,1.7581915855407715,-0.6993668675422668,-2.4498438835144043,0.08314111083745956,-0.6028965711593628,-0.7318594455718994,-0.3985859155654907,-0.12136158347129822,0.34084388613700867,1.634258508682251,-0.0036190301179885864,-0.6973351240158081,-0.5382125973701477,-1.4145573377609253,-1.1312520503997803,-1.8151178359985352,-0.3411754369735718,-0.20868921279907227,1.6294015645980835,0.33572691679000854,-1.1294764280319214,1.1841803789138794,-0.24943172931671143,1.5606614351272583,-0.5235521197319031,2.112419605255127,-0.38092735409736633,-0.683418869972229,-0.5060908794403076,0.7144718170166016,-1.0034222602844238,0.4478040933609009,-1.59592604637146,0.6641998291015625,1.1639853715896606,-0.18697120249271393,0.09160396456718445,0.6758896112442017,0.5603973269462585,-0.31779366731643677,-1.6296577453613281,-0.34732070565223694,-0.6612817645072937,-0.14841724932193756,-0.3415113091468811,-1.087640404701233,-0.8474633693695068,1.5734118223190308,0.3335343897342682,0.5249238610267639,-0.7721898555755615,-0.5144963264465332,0.0038818754255771637,0.503146767616272,-0.8375183939933777,-1.2422977685928345,-0.07774096727371216,-0.2543759346008301,0.531838059425354,0.7160789966583252,-1.2608661651611328,-1.2305500507354736,0.4700300097465515,1.5991992950439453,0.5341266393661499,-0.34620994329452515,-1.6042004823684692,-0.29636314511299133,-0.5572937726974487,-0.40035006403923035,1.0470397472381592,0.05024413764476776
types/INTP_Balzack/img_5.png,0.6267217397689819,0.6356159448623657,1.0531983375549316,0.02524378150701523,2.095073699951172,-0.13280750811100006,0.05969785526394844,0.0074716536328196526,1.2479668855667114,-2.5523884296417236,-1.9516898393630981,-1.2236632108688354,-0.4355555772781372,-0.046138789504766464,1.922465205192566,-0.7926379442214966,1.394676923751831,-0.0679742693901062,0.3600965440273285,0.035749807953834534,-0.5305463075637817,0.30593687295913696,0.2851186692714691,-0.4605505168437958,1.0777316093444824,-0.8210268020629883,-0.055727578699588776,1.317870855331421,1.4314457178115845,-0.510128378868103,-1.3791261911392212,-0.6192833185195923,-1.9916619062423706,0.04760163277387619,-0.10785320401191711,1.1607716083526611,0.09770414978265762,0.35861533880233765,-0.5439318418502808,0.909026026725769,1.1752123832702637,-1.3466153144836426,-0.5245671272277832,0.27767297625541687,0.005777694284915924,0.6536378860473633,-1.6853867769241333,-1.9217162132263184,-0.5979202389717102,-0.4949158728122711,-0.8456788659095764,0.9208337664604187,-0.35351336002349854,1.1721429824829102,-0.9404260516166687,-0.44319215416908264,0.2171151340007782,-2.18507719039917,-0.5299084782600403,0.6215358972549438,-0.519540548324585,-0.033324696123600006,0.05833886191248894,-0.31791141629219055,-1.8066492080688477,1.4852420091629028,1.6765516996383667,-0.656432569026947,-0.027731548994779587,-0.4486832916736603,-0.9183182120323181,0.1342824101448059,0.8909132480621338,-1.761900782585144,0.4595043957233429,2.0068066120147705,-0.9150083065032959,-0.362064927816391,-0.7157076001167297,0.35053473711013794,0.33712074160575867,3.850604772567749,0.46278128027915955,-1.617067813873291,0.08594861626625061,-0.6847577095031738,0.734198272228241,-0.17399883270263672,0.16991953551769257,2.1860578060150146,0.868668794631958,-0.017309367656707764,-0.8463747501373291,-1.7436320781707764,-1.967952013015747,-0.4293014705181122,-0.6725128889083862,-0.8941020369529724,1.3325836658477783,2.38126277923584,-0.28804367780685425,0.5936168432235718,-0.6005969047546387,0.7126491069793701,1.56094491481781,0.6033132076263428,-0.15061864256858826,1.1133053302764893,0.9870604276657104,-0.4740198254585266,-1.1302179098129272,-0.35718363523483276,0.004229404032230377,-1.6477361917495728,0.43836402893066406,-1.3770610094070435,-0.4000811278820038,1.1411830186843872,1.3430895805358887,-2.0044631958007812,2.0869932174682617,0.9066570997238159,0.367512583732605,-1.482329249382019,0.5907162427902222,0.3028898537158966,-0.25287675857543945,0.22566749155521393
types/INTP_Balzack/img.png,-0.03535319119691849,0.14683881402015686,0.38979488611221313,1.7654775381088257,0.8510376811027527,-1.0666313171386719,0.06752081215381622,0.0052877627313137054,1.7005400657653809,-1.7191110849380493,-0.7019785642623901,0.11877351999282837,0.3348918557167053,-0.9831854104995728,0.12346071749925613,-1.3874837160110474,-0.025796659290790558,-0.5170294046401978,-1.178632378578186,0.5620709657669067,-1.4003193378448486,-0.4854470193386078,0.9937949776649475,-0.6422241926193237,-0.3617834150791168,-0.8109628558158875,-0.26415860652923584,0.9453461766242981,0.8431831002235413,-0.6360509395599365,-2.1822471618652344,-1.180214285850525,-3.109544277191162,1.5219683647155762,0.2434476613998413,-0.26758497953414917,-0.35759446024894714,-0.5474798679351807,0.00036422908306121826,-0.25391411781311035,0.7806593179702759,0.3628382086753845,-0.7059550285339355,1.0870243310928345,0.25657546520233154,-1.5910142660140991,-0.4687075912952423,-0.3054485619068146,0.6809177994728088,-0.019884973764419556,0.1689750701189041,0.13727779686450958,0.4063970744609833,-0.35022616386413574,-0.8398396968841553,-1.0016013383865356,1.8298147916793823,-0.24000994861125946,0.2637901306152344,0.21033525466918945,-1.154854655265808,-0.8309609889984131,-0.4029424786567688,-0.16923972964286804,-0.6936338543891907,2.154067277908325,0.5424638986587524,-0.42918673157691956,-1.1410683393478394,-1.4010120630264282,-1.4632558822631836,-0.3785861134529114,0.04278187453746796,-0.061544109135866165,-0.1610996127128601,1.3246791362762451,-0.9076801538467407,1.2346389293670654,-0.443820595741272,-1.5209146738052368,-0.17714527249336243,1.4171290397644043,-0.16187646985054016,-1.763948917388916,-1.0557832717895508,-2.2633628845214844,0.23461921513080597,-0.21012817323207855,-1.4679315090179443,1.454033374786377,0.34829068183898926,-0.32585400342941284,-1.8682613372802734,-1.2226868867874146,-1.0105304718017578,-0.3952912986278534,-0.9258209466934204,-0.9749492406845093,0.45681023597717285,0.6067731976509094,-0.1304643452167511,-0.6816636323928833,-1.4381667375564575,1.0842632055282593,1.14655601978302,2.4792935848236084,0.5546826124191284,-1.0932101011276245,-0.8640701174736023,-0.8376786708831787,1.5636825561523438,0.8407710194587708,0.35344380140304565,-0.8317128419876099,1.0686700344085693,0.9047571420669556,-1.0212457180023193,-1.5545563697814941,0.7370564937591553,0.29334017634391785,0.5977455377578735,-1.666865348815918,-0.79935622215271,-0.9988300800323486,-0.14430014789104462,-0.35685616731643677,0.7478736042976379,-1.0120185613632202
types/ESFP_Napoleon/img_1.png,0.7686082124710083,-0.1796470284461975,-1.0808908939361572,1.3623952865600586,2.3216845989227295,-1.593645691871643,1.459814190864563,-0.018023010343313217,-1.5756181478500366,-0.07080961763858795,-2.3047688007354736,-0.5422554612159729,-0.05560203641653061,0.3533151149749756,1.1560076475143433,-0.6143144369125366,0.921104907989502,-1.643123745918274,-1.3747938871383667,0.029381051659584045,-1.6637674570083618,0.226066455245018,0.9807575345039368,1.522247314453125,-0.477704256772995,-0.9863551259040833,0.493989497423172,-0.12253282964229584,0.19610339403152466,0.562389075756073,0.8351060152053833,-1.1790821552276611,-1.4087562561035156,1.9611454010009766,-1.819606065750122,-0.33627939224243164,-0.2494942843914032,-0.15519055724143982,0.38496431708335876,0.762004017829895,-1.071501612663269,-0.1898333579301834,-0.12754784524440765,0.9605615139007568,0.6836407780647278,0.4139447808265686,-0.7493006587028503,0.17024101316928864,0.5418773889541626,-0.8557082414627075,-1.1432325839996338,-0.4062420129776001,-0.7799597382545471,0.42665934562683105,-0.7107034921646118,-0.8519595265388489,-0.7412328124046326,-1.4206751585006714,-0.30175885558128357,1.078735113143921,-2.482728958129883,0.5196045637130737,-1.236532211303711,-0.5106266140937805,-1.033981442451477,1.0702667236328125,-0.948003888130188,1.0011088848114014,-0.6033680438995361,0.6085454225540161,-0.2915622591972351,1.6191459894180298,1.5181623697280884,-0.5551608800888062,0.5465278625488281,1.5427510738372803,-0.5982598662376404,0.14657410979270935,0.08774041384458542,0.277060329914093,-1.3339909315109253,2.490926504135132,-1.3615458011627197,-1.1133265495300293,0.00063285231590271,0.4922538697719574,-0.827393651008606,-0.9826226830482483,-0.14889943599700928,1.3567461967468262,2.8885412216186523,1.6491869688034058,-1.0732945203781128,-0.9142597317695618,0.06386447697877884,-0.5532877445220947,0.40219324827194214,0.8962715864181519,0.3910067677497864,0.6657456159591675,0.4375396966934204,-1.1428356170654297,-1.195921540260315,0.3049090802669525,0.7981607913970947,-0.8597037196159363,0.5659293532371521,-1.750387191772461,-1.3416433334350586,-1.0434132814407349,-1.165212631225586,0.4503800868988037,0.21281656622886658,-1.7357221841812134,0.9363695383071899,-0.16340306401252747,-1.5069715976715088,0.8961511254310608,0.9481590986251831,0.6828812956809998,1.534651756286621,-0.28227153420448303,-0.5483294725418091,-1.2439452409744263,-1.2874912023544312,-1.2902312278747559,0.18917623162269592,-0.36296236515045166
types/ESFP_Napoleon/img_2.png,-1.2537208795547485,-0.6615196466445923,0.13027536869049072,0.9085748195648193,1.351219654083252,-1.1615146398544312,0.5664141178131104,0.22137351334095,0.6930369734764099,0.12381298840045929,-3.5227651596069336,-0.48633766174316406,0.12825201451778412,0.553595781326294,2.6080007553100586,-0.4744773507118225,0.47188249230384827,-0.7384151816368103,-0.3450321555137634,-1.1795397996902466,-0.4385077953338623,-0.3264070153236389,0.2458365559577942,0.31979143619537354,-0.20446254312992096,-1.1378289461135864,0.29306578636169434,1.017714500427246,0.5107009410858154,-1.7422305345535278,-1.5017130374908447,-0.559514582157135,-1.4316482543945312,0.7600001096725464,0.7233876585960388,-0.6726927161216736,-1.4255383014678955,-0.05563802272081375,-0.3084917664527893,-0.09139877557754517,0.21264447271823883,0.41788825392723083,-0.5295414924621582,-0.6502076387405396,0.019031662493944168,-0.3378458619117737,-0.5386786460876465,-0.6394250392913818,0.742078423500061,0.2939424216747284,-1.039694905281067,0.6368671655654907,-0.917681872844696,-0.4958598017692566,0.4306941628456116,-2.1980631351470947,0.4793798327445984,0.1192522794008255,-0.9116861820220947,0.2779150903224945,-0.6166167259216309,-0.9164584279060364,-1.6558271646499634,0.40892690420150757,-1.1401426792144775,0.5430799722671509,0.5928966999053955,0.44973447918891907,1.0466068983078003,-1.451261043548584,-1.4117053747177124,-0.45969751477241516,1.2551453113555908,-1.1540430784225464,0.8277646899223328,0.893460214138031,-0.3632507920265198,-0.29344192147254944,-0.15840443968772888,-0.31228888034820557,-1.0558538436889648,2.716982126235962,0.38680794835090637,-2.570396661758423,-2.1991937160491943,0.11331504583358765,1.302819013595581,-0.007657922804355621,-1.3808820247650146,2.53950572013855,0.7465797662734985,0.9896785616874695,-0.635180652141571,-0.34240028262138367,0.3755856156349182,-0.8674532175064087,-1.879166841506958,1.6342724561691284,1.0621840953826904,3.049312114715576,-0.028824834153056145,0.9187573790550232,-1.9695285558700562,1.0536834001541138,2.1765313148498535,-1.197399616241455,-0.05494282394647598,0.27768436074256897,-0.8573883771896362,-1.2017722129821777,-0.7939258813858032,-0.22403393685817719,-0.7059743404388428,-0.372071772813797,-0.8671583533287048,-0.06864780187606812,0.6659245491027832,0.43612736463546753,0.5770659446716309,0.28728535771369934,0.3173077702522278,0.27495524287223816,-1.6486293077468872,-1.0235600471496582,-0.3184189796447754,0.28404420614242554,0.01625421643257141,0.2527090907096863
types/ESFP_Napoleon/img_3.png,-0.8657175302505493,0.8931835889816284,-0.06756405532360077,1.2990086078643799,0.8220489621162415,-0.15550053119659424,-1.2613552808761597,1.027591586112976,-2.378441333770752,0.047647129744291306,-1.0886600017547607,-1.1904044151306152,-0.4413604736328125,0.537273645401001,-0.40009477734565735,0.9977688193321228,0.5114107131958008,-2.5365676879882812,-0.8197672367095947,-0.32874029874801636,-1.0767549276351929,1.4993540048599243,-0.1410021334886551,1.2468326091766357,-0.6336703300476074,0.27873942255973816,-0.5489101409912109,1.8089885711669922,0.3285043239593506,0.07652394473552704,0.37382182478904724,-0.6240907907485962,-0.411063551902771,0.4860592484474182,0.6799163818359375,0.7363628149032593,0.5618488788604736,-1.669696569442749,-0.1689932644367218,0.5365800261497498,-1.3300760984420776,-0.2921995222568512,-0.07995055615901947,0.7697321772575378,0.2137499451637268,-0.6977956891059875,1.3568989038467407,0.6187515258789062,-0.8723040819168091,-0.21548989415168762,-0.7601057887077332,1.291061282157898,0.24712231755256653,1.245350956916809,-1.2413067817687988,0.4209255278110504,0.21551063656806946,-1.9462237358093262,-1.3128503561019897,1.8162132501602173,-1.2619240283966064,-0.5366916060447693,0.9603736996650696,-0.36343955993652344,-1.951451301574707,0.5380556583404541,0.7114896774291992,1.2369844913482666,0.11321527510881424,1.3231685161590576,1.6468528509140015,0.3727004826068878,0.08813183009624481,1.446948766708374,0.969095766544342,2.2809128761291504,0.5658794641494751,1.653071641921997,1.4279820919036865,0.4586607813835144,0.7449236512184143,0.1530327945947647,-0.980235755443573,0.44506940245628357,1.524925708770752,-0.2244444638490677,-0.39485254883766174,-1.6970314979553223,0.8222571611404419,0.004931172356009483,0.7388502359390259,-0.07503761351108551,0.1253114640712738,-0.2615402340888977,-0.28042638301849365,1.8144234418869019,-1.3098483085632324,1.0292404890060425,-0.8980764746665955,-0.4216531813144684,0.1713307648897171,-0.6150315403938293,-1.2541937828063965,-0.4580749571323395,0.6176289319992065,-1.6349389553070068,-1.3032193183898926,-0.7221857309341431,-1.0502830743789673,0.6121252179145813,-1.307283639907837,0.9152294993400574,1.1752387285232544,0.004445313476026058,-0.3504711389541626,-0.9261684417724609,-0.7101540565490723,-1.2259414196014404,-1.0328571796417236,0.061577897518873215,1.5122944116592407,-2.618671178817749,-0.5528680086135864,0.38288769125938416,1.575949788093567,-0.37124550342559814,1.5917454957962036,0.2993050813674927
types/ESFP_Napoleon/img_7.png,1.1620036363601685,0.10476554930210114,0.10263008624315262,0.9196330308914185,1.3996303081512451,-1.2916756868362427,0.8442800045013428,0.41563454270362854,-0.4752247929573059,0.19628475606441498,-2.77587628364563,-1.7679988145828247,0.41574323177337646,1.3174082040786743,-0.14201313257217407,-1.850700855255127,-0.2025182545185089,-0.4544731378555298,-0.7847673892974854,0.2543642818927765,-0.6670985221862793,1.1976219415664673,0.058631978929042816,-0.6249409317970276,-0.963355541229248,-0.9815072417259216,1.324488878250122,0.6774100661277771,-0.2857557535171509,0.5382241606712341,-0.9583218097686768,1.5376805067062378,-1.4724990129470825,0.4281318187713623,-1.2303659915924072,-2.0238232612609863,0.6375744342803955,0.08299914747476578,1.1234017610549927,-0.030014850199222565,-0.0831189975142479,-1.3492110967636108,0.6201925277709961,-1.328048825263977,-0.7547439932823181,-0.2916712760925293,-0.8568044304847717,-1.46701180934906,-0.7954211831092834,-0.6383275985717773,-1.1980783939361572,1.00102698802948,0.35642480850219727,-0.17957043647766113,-0.24078500270843506,-2.118561267852783,0.02672666497528553,-0.07190434634685516,-0.13935840129852295,-1.410988211631775,-1.4336020946502686,-0.46801894903182983,-0.712790310382843,1.30865478515625,-1.630260944366455,0.8431692123413086,1.543219804763794,-1.0565345287322998,-0.7916984558105469,-0.343313604593277,0.14006565511226654,-0.18571040034294128,2.6823668479919434,0.8222795128822327,-0.5226621627807617,1.8148069381713867,-0.050880201160907745,-0.02286401018500328,1.0031967163085938,-0.9551305174827576,1.1118359565734863,3.1275248527526855,-0.3407454192638397,0.04128383845090866,-0.6089210510253906,0.06411761045455933,-0.18888728320598602,-1.9862712621688843,-1.0478495359420776,1.605767846107483,0.1473548263311386,0.7632436752319336,-2.4779598712921143,-0.2893998622894287,-0.27170106768608093,-0.8356723785400391,-0.7171443104743958,0.6015040278434753,0.6658496856689453,-1.1101491451263428,-1.3933967351913452,-0.40384992957115173,-1.1774415969848633,-0.3267331123352051,0.3742353320121765,0.5686457753181458,0.4332466125488281,-0.4108872711658478,-0.38466551899909973,0.019787466153502464,-0.0729132667183876,0.15821364521980286,-0.2512376010417938,0.554918110370636,0.11224593967199326,0.22324779629707336,-1.3980048894882202,-1.1650265455245972,-1.1182537078857422,0.9357426762580872,-0.024810925126075745,0.32522866129875183,-1.89767587184906,-0.5881125926971436,-1.545359492301941,1.7685681581497192,1.1297835111618042,-1.3792216777801514
types/ESFP_Napoleon/img_6.png,2.040079116821289,0.8106169700622559,0.6076241731643677,-0.5068573355674744,-0.4513266384601593,0.928054928779602,1.514751672744751,-0.28864845633506775,-1.9692716598510742,0.8450829982757568,-0.12228372693061829,-1.0924268960952759,0.5621493458747864,1.0310043096542358,-0.38549986481666565,-1.1591159105300903,-0.49010518193244934,-1.990371823310852,0.19022847712039948,-0.7397123575210571,-0.09110665321350098,1.865154504776001,-0.11328581720590591,0.33347398042678833,0.7995743155479431,-2.2104222774505615,-0.35879746079444885,-0.18590566515922546,-0.08799733221530914,-0.429979532957077,1.5840327739715576,-0.33948060870170593,-0.7942200303077698,1.0718491077423096,-0.6641831398010254,-1.1549333333969116,-0.05432608723640442,-0.6865347027778625,0.21304628252983093,-0.5010125637054443,-1.7911748886108398,0.18268392980098724,-0.5230587720870972,-0.38562822341918945,0.028232259675860405,0.3230915367603302,0.8969897031784058,-0.1412031650543213,1.7702478170394897,0.28836262226104736,-2.544933795928955,-0.5791943073272705,-0.1962384581565857,-0.16741615533828735,-0.6664231419563293,-1.4044362306594849,-1.8461856842041016,0.2597900331020355,-0.5512949228286743,-0.03963618725538254,-1.3960182666778564,-0.18647152185440063,0.915549635887146,-1.1173619031906128,-1.0752427577972412,0.40309298038482666,-0.7925251126289368,1.0768862962722778,-0.06915531307458878,1.141290307044983,-0.2832888960838318,0.7443379163742065,0.16655810177326202,-1.470629334449768,-1.5735108852386475,0.5128087401390076,-0.22034499049186707,0.42734256386756897,1.1915059089660645,2.4167404174804688,0.27752113342285156,-0.12737780809402466,0.32000160217285156,0.15940436720848083,0.8536181449890137,1.3545072078704834,-1.0171003341674805,-1.1244817972183228,1.101272702217102,-0.6139305233955383,3.060939073562622,0.7835325002670288,-1.175430417060852,0.1789713203907013,2.150770902633667,1.2853624820709229,-1.609094500541687,0.7927819490432739,1.9351487159729004,-0.22945183515548706,0.2575526237487793,0.7927411198616028,1.007805347442627,-0.13451331853866577,-1.0277398824691772,0.6578276753425598,0.016852645203471184,0.9631071090698242,-1.6950721740722656,-2.3639979362487793,-1.082833170890808,-1.3957864046096802,-0.8989846706390381,-0.0002833288162946701,0.34171611070632935,0.793816328048706,0.201162189245224,-0.288051962852478,-0.8164119720458984,1.1799157857894897,-0.3737231194972992,0.8334130048751831,-0.7449634075164795,-0.2074921727180481,-0.17183741927146912,-0.6298043131828308,-0.6623149514198303,-0.9674808382987976
types/ESFP_Napoleon/img_4.png,-0.3013980984687805,0.4215669333934784,0.43824121356010437,2.0740554332733154,1.8382787704467773,-1.2008492946624756,0.6854628920555115,0.7376304864883423,0.46777674555778503,0.7761355042457581,-1.5220469236373901,-1.43155837059021,0.6939628720283508,0.8339344263076782,0.9511067867279053,-1.5924040079116821,-0.10751140117645264,-1.4039702415466309,-2.1981496810913086,1.1625444889068604,-0.5624529123306274,0.020697010681033134,-0.07637734711170197,0.32473206520080566,-0.27904999256134033,-1.7420367002487183,0.7483351230621338,0.30927157402038574,0.3774297833442688,-2.0057272911071777,0.22573626041412354,-1.6809163093566895,-1.4467755556106567,-0.7959142327308655,-0.8270720839500427,-0.5969138145446777,-0.5854061245918274,-1.4656379222869873,0.49408185482025146,0.16229264438152313,-0.42969071865081787,-0.2024940699338913,1.07052481174469,0.5655034780502319,0.38955363631248474,0.08318392932415009,-0.8774462342262268,-1.0158997774124146,-0.3794533610343933,-1.7081899642944336,-1.3882136344909668,1.434415578842163,-1.9911202192306519,-0.15822622179985046,-1.028421401977539,-2.217836618423462,1.3402972221374512,0.026867661625146866,0.3655683994293213,-1.0200862884521484,0.5215946435928345,0.31340616941452026,-0.013127060607075691,-0.08504514396190643,-1.977357268333435,2.0085105895996094,0.3516252040863037,-0.28559526801109314,-1.1056503057479858,-0.671271562576294,-1.9754116535186768,-0.4296260178089142,1.3662058115005493,-0.8923205733299255,0.44590723514556885,2.100559949874878,0.47437313199043274,1.0740158557891846,0.019631221890449524,0.9285683631896973,-0.03342946618795395,2.8415489196777344,-0.18619202077388763,-0.8448975682258606,-1.226166009902954,-0.5981283187866211,-1.0591039657592773,-1.2914001941680908,-1.0851060152053833,0.8798536658287048,1.1947399377822876,0.2901742160320282,-0.8269168138504028,0.43064823746681213,-1.1677968502044678,-0.8283619284629822,-1.547579288482666,0.5824760794639587,0.5630659461021423,0.5337833166122437,-1.744862675666809,-0.07248897850513458,-0.945626974105835,0.8236199021339417,1.8414075374603271,-0.012359258718788624,0.06172321364283562,0.8481075763702393,-0.8286560773849487,1.0677434206008911,0.42190325260162354,-0.1148955374956131,0.9404323101043701,-0.5848023295402527,-0.7985426783561707,1.6848505735397339,-1.0213359594345093,-0.9128589630126953,-0.8725865483283997,0.23367689549922943,0.3143177330493927,-0.010280871763825417,-1.9676374197006226,-0.937465488910675,0.013452120125293732,-1.0111961364746094,0.2207854837179184,-1.3838012218475342
types/ESFP_Napoleon/img_5.png,-0.5081945657730103,-0.49291619658470154,-2.529928207397461,2.2639048099517822,-0.042381055653095245,0.7973830103874207,-0.41043418645858765,-0.477844774723053,-0.3817180097103119,0.9934194087982178,-0.012657281011343002,-1.8205186128616333,-1.3418774604797363,2.001413345336914,-0.5894198417663574,1.8310573101043701,0.5052201747894287,-2.027338743209839,-1.3161221742630005,1.2186065912246704,-0.45308181643486023,0.7954900860786438,0.38911595940589905,0.6826480627059937,1.060550332069397,0.604621946811676,1.455187201499939,-0.37094393372535706,1.5873899459838867,1.4331563711166382,1.558835744857788,0.19897961616516113,-0.4847537875175476,1.9755265712738037,-1.2277027368545532,0.10186915099620819,-0.12034635245800018,-0.49892401695251465,0.3780088424682617,0.7380588054656982,0.31457093358039856,-0.6660450100898743,0.8045413494110107,-0.5104051828384399,1.1075763702392578,-0.6793826818466187,0.4991009533405304,-0.12720665335655212,0.25846123695373535,-0.34262868762016296,-0.8555110692977905,-0.14296388626098633,-0.7643462419509888,0.8763015866279602,-1.8875542879104614,-1.3098245859146118,1.7903451919555664,1.191030502319336,-0.21767114102840424,-0.5590280890464783,-1.1840717792510986,1.1747918128967285,0.025997474789619446,1.695449948310852,-0.4027579128742218,-0.08367043733596802,0.8044253587722778,0.603871762752533,-0.33116427063941956,-1.594359040260315,0.9143882393836975,-1.1743329763412476,1.337965726852417,1.9124435186386108,1.027950406074524,1.1179693937301636,2.16483998298645,0.7704951167106628,1.2999612092971802,0.3498174548149109,-0.9426217079162598,1.148510217666626,0.7155870795249939,-0.9233211874961853,-0.9294975996017456,1.3763518333435059,-0.8607498407363892,1.3802603483200073,-0.8676000833511353,-0.14088183641433716,1.557623028755188,0.224917471408844,1.3372766971588135,0.3203124403953552,0.9845475554466248,0.528136670589447,-1.0299947261810303,1.5847138166427612,-1.8490536212921143,0.2100456953048706,-1.4311714172363281,-0.5450228452682495,-1.0172827243804932,0.6730709671974182,0.6087517738342285,-1.4826748371124268,0.634005606174469,0.6137512922286987,-1.0755780935287476,-0.8520194888114929,-0.2780279517173767,0.5392879247665405,1.6478382349014282,-0.5101439356803894,-0.0435372069478035,-1.0535768270492554,0.5847189426422119,0.5121676921844482,0.12938807904720306,0.412827730178833,0.9996095895767212,-0.010135870426893234,0.7222196459770203,-0.926476776599884,0.7589502334594727,-0.7133876085281372,1.2257734537124634,0.8786118626594543
types/ESFP_Napoleon/img.png,1.265287160873413,0.1928178369998932,1.5769116878509521,0.47884950041770935,1.984093189239502,0.014329979196190834,0.33646050095558167,-0.15281398594379425,0.20059388875961304,-0.3047202527523041,-0.40888166427612305,-1.8236782550811768,-1.448417067527771,-1.8114402294158936,-0.10766670107841492,-3.0000452995300293,-0.980500340461731,-1.156065583229065,-0.4716411232948303,0.05482304096221924,0.37652429938316345,0.639979898929596,0.9531551003456116,-0.9453895688056946,1.9596593379974365,0.2992735505104065,0.5544205904006958,0.7427661418914795,0.8754388093948364,-0.7258176207542419,-1.544284701347351,-0.22877894341945648,-3.1072676181793213,0.37272951006889343,0.03748033940792084,0.2964942753314972,-0.4023761749267578,-1.123820424079895,-1.5010833740234375,-1.7444483041763306,-0.6586707234382629,-1.8480819463729858,-1.8113468885421753,0.970309853553772,0.36249786615371704,0.7122123837471008,-1.2282956838607788,0.8106945753097534,-0.5453263521194458,-0.7109079360961914,-0.14198698103427887,0.9544652104377747,0.5890997052192688,-0.06246653571724892,-1.0125300884246826,-1.161982774734497,0.39175403118133545,-2.4537851810455322,-0.7264033555984497,-0.21483969688415527,-0.6279529333114624,-0.2973356246948242,0.10303884744644165,-0.19686539471149445,-1.7305759191513062,2.407090187072754,-0.1860012710094452,-1.395574688911438,-0.11097034066915512,0.34692466259002686,0.0838150903582573,-2.5782527923583984,-0.42762741446495056,-0.5735527873039246,0.5697861313819885,1.7442628145217896,-0.2934457063674927,2.11903715133667,-0.071624256670475,1.855279564857483,0.19880306720733643,2.195924997329712,-0.5101695656776428,-0.5869098901748657,2.0300328731536865,-0.8829079866409302,-0.3254826068878174,-0.9411328434944153,1.4789676666259766,0.6844747066497803,0.4954063296318054,0.13320550322532654,-0.5572990775108337,0.2461937963962555,0.7710973024368286,0.7528238296508789,0.06165403500199318,-0.44699445366859436,0.83951336145401,-0.2748658359050751,0.09256032109260559,-1.6952228546142578,0.6793695688247681,0.6005919575691223,-0.1820279359817505,2.3950793743133545,1.1661909818649292,1.134052038192749,1.005570411682129,-0.9055137038230896,-0.9933204650878906,-1.2278351783752441,-0.7472095489501953,-1.0933228731155396,2.0854203701019287,1.7519826889038086,-1.490640640258789,-0.10061272978782654,-0.09175967425107956,-0.5256034731864929,2.2314844131469727,-0.5991965532302856,-2.033013343811035,0.05699876695871353,0.5178532004356384,-0.04178901016712189,-0.03439747169613838,0.044664353132247925
types/ISTP_Gaben/img_1.png,0.9234496355056763,1.3040469884872437,-1.1808722019195557,-1.1580629348754883,0.16672766208648682,-0.029853714630007744,-0.5852236747741699,0.49736854434013367,-1.9580800533294678,-0.016257669776678085,0.42992308735847473,-0.5762031674385071,-0.10752277076244354,-0.21824197471141815,1.2621270418167114,-1.616552472114563,0.22860471904277802,-1.509205937385559,-1.564164400100708,-1.5694864988327026,-0.7029805183410645,-0.30015021562576294,0.33807381987571716,1.6667413711547852,0.5253110527992249,-1.544437289237976,-2.7896976470947266,0.9747560024261475,0.6035048961639404,-1.4972634315490723,1.715271234512329,-0.4588257670402527,0.22516076266765594,1.3621209859848022,0.8512287139892578,1.7003591060638428,-2.8775787353515625,-0.49414896965026855,0.10004295408725739,1.1080284118652344,0.27208173274993896,0.05189349874854088,-0.5753352642059326,-0.027889180928468704,0.9669134020805359,-0.6874834895133972,1.3502769470214844,1.2195758819580078,-0.26630836725234985,-2.0094549655914307,-1.814894437789917,0.5183643698692322,-1.3822184801101685,0.37019461393356323,0.19278576970100403,0.4246334731578827,-0.8563678860664368,-1.140040636062622,0.11675148457288742,-0.3307793140411377,0.26106277108192444,-1.8761776685714722,-0.18501731753349304,-1.4614596366882324,0.3018580973148346,-0.8549637794494629,-1.5361307859420776,1.023132562637329,0.43623295426368713,-1.2508130073547363,-1.5233910083770752,0.24774980545043945,-0.32465189695358276,-0.7645177245140076,0.10331039130687714,0.1712062954902649,-0.4816446602344513,-0.1271640956401825,0.8323251605033875,0.5364380478858948,2.5963826179504395,0.578544020652771,-1.5207034349441528,-1.0748929977416992,0.3727075457572937,0.20489010214805603,-1.3113579750061035,-0.13835269212722778,0.5066573619842529,1.5639292001724243,1.4645689725875854,0.8093410730361938,0.023558277636766434,-0.5858187675476074,1.071122646331787,1.48689866065979,-1.0779693126678467,0.47233444452285767,0.523306131362915,1.5265157222747803,-1.2327125072479248,-0.7908908724784851,-1.3887159824371338,1.1329238414764404,-0.2836267352104187,-0.358645498752594,0.7506095767021179,0.4932651221752167,-0.37443938851356506,-1.4755016565322876,-2.02021861076355,0.8342456221580505,-0.4087265431880951,-1.3258968591690063,0.5354655385017395,-0.13761955499649048,0.3582874834537506,-1.6579797267913818,1.9783591032028198,0.6417946219444275,-0.6715220808982849,0.5407781600952148,-0.08219131827354431,-0.5379195809364319,0.8141015768051147,-0.368207186460495,-0.26201722025871277,-0.25861823558807373
types/ISTP_Gaben/img_2.png,0.21050401031970978,0.9549729824066162,0.4810413420200348,-0.8553476333618164,0.27977415919303894,-1.6288155317306519,-0.9043278694152832,-0.07305705547332764,-1.4933546781539917,-0.40000680088996887,-1.4825133085250854,1.88812255859375,1.0354145765304565,-0.888155460357666,0.28120216727256775,-0.3419650197029114,1.1537253856658936,-0.20168745517730713,-1.1312203407287598,-0.09413941949605942,0.8085272312164307,0.4801400899887085,-0.15157988667488098,-0.168719083070755,-0.34165024757385254,-0.03553682565689087,-0.784956693649292,2.521951675415039,-0.19447390735149384,-1.8844616413116455,-0.7331018447875977,1.684489130973816,-0.01176246628165245,-0.5336371660232544,0.17634497582912445,-0.784705400466919,0.0600404366850853,-1.6408876180648804,-0.6141670942306519,-0.19843219220638275,-1.6267812252044678,0.05044877901673317,-0.8312481641769409,-0.05663902685046196,-0.13450981676578522,-1.0490642786026,0.43320992588996887,-0.4661909341812134,-0.8561708331108093,0.39966538548469543,-0.6275711059570312,0.28561803698539734,-0.8514376878738403,-1.084227204322815,2.079413652420044,0.5277316570281982,0.16230259835720062,-0.6086145639419556,0.5490751266479492,0.26229315996170044,-0.2902320623397827,-1.8955644369125366,0.23362652957439423,-0.4185561239719391,-0.9991852641105652,0.03255645930767059,0.5822745561599731,0.22865502536296844,-0.3382928967475891,-0.5786665678024292,-1.0175362825393677,0.4028937518596649,0.40612486004829407,0.4652653932571411,1.7209619283676147,0.13793732225894928,-0.9440488815307617,-0.5455588102340698,0.25139957666397095,-1.7140377759933472,0.7616704106330872,0.9537850618362427,-2.159119129180908,0.05003131181001663,0.3678137958049774,0.4885607063770294,-1.0963958501815796,-2.113093852996826,0.45746365189552307,0.9957079291343689,-0.6585961580276489,-0.5570768117904663,-0.7896949648857117,-2.3190813064575195,0.8526813983917236,0.21327334642410278,-0.6150290369987488,-0.0988670065999031,0.9760876297950745,-1.2146130800247192,0.15283672511577606,0.12483436614274979,-1.2899174690246582,-1.9555885791778564,0.10769694298505783,-1.2400175333023071,-0.08304747939109802,-0.3295890986919403,0.7769051194190979,0.4016946852207184,-1.588197112083435,1.7908847332000732,0.5791381597518921,0.26613810658454895,0.7675025463104248,0.6727023124694824,-0.4603946805000305,-0.9431506395339966,-0.40183138847351074,1.0785802602767944,0.4514590799808502,-1.1251665353775024,0.06695139408111572,-0.394056111574173,0.7411405444145203,0.4125336706638336,0.741779625415802,-0.48058199882507324
types/ISTP_Gaben/img_3.png,-1.416749119758606,0.07321903109550476,-0.5351482629776001,1.330510139465332,0.7606188058853149,-1.4050610065460205,0.8467869162559509,1.255366563796997,-0.7939346432685852,-0.621167004108429,0.1989743709564209,0.4724346995353699,0.5151365995407104,0.7070095539093018,0.8162504434585571,0.35626220703125,1.2071270942687988,0.35273420810699463,-0.5317299962043762,-0.5820103287696838,-0.7397615909576416,0.18723493814468384,0.4549577832221985,-0.2974259555339813,1.1748244762420654,-0.6789456605911255,-0.9661672115325928,2.426501750946045,1.63393235206604,-0.858535885810852,-1.302037000656128,1.8771082162857056,-1.5512129068374634,0.4092545807361603,0.825275182723999,-1.4231826066970825,0.26657742261886597,0.1573500782251358,0.0898723155260086,-1.2075676918029785,-0.1512615829706192,0.7954621911048889,-0.3479299545288086,0.5801598429679871,-0.12506648898124695,-0.33945849537849426,-0.20289656519889832,-2.5137836933135986,0.12539279460906982,2.1006808280944824,-1.2519549131393433,1.8439968824386597,-0.6912051439285278,0.19271434843540192,-0.25805285573005676,1.0834851264953613,-0.13691121339797974,-0.2492634505033493,0.008207501843571663,0.34994345903396606,-0.8537511825561523,0.43413031101226807,0.7362390160560608,-0.4058930575847626,-0.23873135447502136,0.6791123747825623,0.3284180164337158,1.7174957990646362,0.3314177989959717,-1.3692094087600708,-1.4620375633239746,0.8348145484924316,0.11508773267269135,0.7352927327156067,-0.39603036642074585,0.41360539197921753,-1.05239999294281,-1.4060391187667847,-0.6487044095993042,-0.5681850910186768,1.5887418985366821,1.7246811389923096,-1.7653818130493164,-1.2309166193008423,-0.3593655526638031,-0.7879331111907959,-0.16659513115882874,0.11595261096954346,-2.0906693935394287,1.5515824556350708,0.6132334470748901,0.40356704592704773,-1.119109034538269,-1.6886224746704102,-1.1291437149047852,0.5370570421218872,-0.14027948677539825,0.23575347661972046,0.7135376930236816,-0.15978997945785522,-2.330035448074341,0.261233389377594,-0.7575411200523376,-1.608211636543274,1.2026687860488892,0.20906870067119598,0.8384010791778564,-0.8817703723907471,0.19042518734931946,-0.2547483444213867,-0.39333826303482056,1.4052094221115112,1.7360906600952148,-1.1631196737289429,1.2813235521316528,-0.688036322593689,1.1124707460403442,-0.5135852098464966,0.8916407823562622,0.820878267288208,0.19900336861610413,0.029318222776055336,1.5862197875976562,0.5310952067375183,0.537965714931488,0.531603217124939,0.024060113355517387,0.27444571256637573
types/ISTP_Gaben/img_7.png,-0.4871314465999603,-1.0027108192443848,-1.2463641166687012,-1.5261218547821045,0.7152425050735474,-0.2937527894973755,-1.2827892303466797,0.372321218252182,-0.34174805879592896,2.238687753677368,-0.672984778881073,0.9938927888870239,-0.20605158805847168,-0.3375374674797058,0.973438024520874,1.7156680822372437,-0.48767736554145813,-1.0782971382141113,-1.4422953128814697,-1.0892715454101562,0.2428267002105713,0.00662835780531168,-0.4694013297557831,-0.9252232313156128,-0.21759016811847687,0.07877644151449203,1.7146728038787842,-0.08099375665187836,0.38217151165008545,0.6864044070243835,-0.2882917821407318,-0.7590445876121521,1.0492671728134155,-0.5680996179580688,1.5202698707580566,1.1082267761230469,0.7227866649627686,1.2113558053970337,-0.9238869547843933,0.5054477453231812,0.42509469389915466,-0.4473540186882019,1.182762861251831,-0.11370397359132767,-1.4952408075332642,-2.5605075359344482,-0.7751854062080383,-1.2462304830551147,-0.2988641858100891,-1.6266320943832397,-1.5338406562805176,0.05907555669546127,0.5335337519645691,-0.028415236622095108,0.24353283643722534,-0.7875971794128418,-0.7292916178703308,0.6679184436798096,1.171772837638855,-1.7015621662139893,-0.5918043255805969,-0.1546241044998169,-1.3072019815444946,0.4195123016834259,-0.6593685150146484,0.8799024224281311,-0.24635717272758484,0.6071591377258301,-0.25433462858200073,0.7682839632034302,1.8184986114501953,-0.3886856734752655,-0.22492705285549164,-0.425420343875885,2.50140118598938,0.40999358892440796,1.3840723037719727,0.877146303653717,-0.13973358273506165,-0.672440230846405,-0.5767355561256409,0.8441027402877808,-0.6357126235961914,0.6017866134643555,-0.3966098427772522,0.014868296682834625,-1.5286787748336792,-0.6384159922599792,-0.02215389534831047,0.2818821668624878,-1.6237430572509766,-2.8228869438171387,0.23004114627838135,-0.7909427285194397,-0.36916568875312805,0.1705031394958496,-1.3230013847351074,0.23937080800533295,1.527195692062378,1.1536498069763184,-0.7443421483039856,-0.22438496351242065,-1.1677253246307373,0.7831528782844543,0.3809206783771515,0.637023389339447,0.9264137744903564,-0.821492075920105,0.25997546315193176,2.7525529861450195,1.991544246673584,0.8215347528457642,0.14317820966243744,0.6250399947166443,0.037697065621614456,-0.20122253894805908,-0.6960937976837158,-0.8594566583633423,-1.2054775953292847,-0.736022412776947,3.0834884643554688,-1.319020390510559,-0.6692857146263123,-1.0200756788253784,-1.0091172456741333,1.343060851097107,1.7016807794570923,0.7933238744735718
types/ISTP_Gaben/img_6.png,-1.1414211988449097,0.6325398683547974,-0.9342083930969238,0.6604246497154236,0.20689420402050018,-1.8783661127090454,-0.5886686444282532,-1.9729981422424316,-1.0606285333633423,0.8318716287612915,-0.7868468165397644,0.2537788450717926,-0.5886894464492798,0.07098692655563354,1.0891828536987305,0.6288936138153076,0.21431295573711395,0.4901878833770752,-0.5535860657691956,0.816129744052887,0.2760479748249054,-1.6290196180343628,1.1667280197143555,0.1584095060825348,0.20626842975616455,-1.4371212720870972,0.45998868346214294,1.8649520874023438,0.5894171595573425,0.16031107306480408,-0.13626277446746826,1.2200876474380493,-0.19732777774333954,0.3039133548736572,-0.8103297352790833,-0.34412336349487305,-0.40030866861343384,0.9548172950744629,0.4617166221141815,1.4526832103729248,1.1155439615249634,-0.3388938903808594,0.5799570083618164,1.463029384613037,1.3909300565719604,-0.7622687220573425,-2.210550546646118,-1.2682582139968872,0.5818274021148682,-1.670109748840332,-0.41062265634536743,-0.5307238698005676,-0.07941592484712601,0.32067281007766724,-0.6272523403167725,-0.0074848271906375885,0.02807723358273506,0.6905109882354736,0.5885620713233948,-1.2365094423294067,0.33005768060684204,1.5423660278320312,-3.645846128463745,-0.9683406949043274,-1.9526640176773071,0.9475356340408325,2.1039304733276367,-0.6074378490447998,-0.252738356590271,-1.1242130994796753,-2.3118536472320557,0.6110057830810547,2.5596442222595215,-0.047598060220479965,-0.5137229561805725,1.028696894645691,0.9507268667221069,-0.0408775769174099,-0.8440361022949219,-1.4733035564422607,0.5885517597198486,2.910480499267578,-0.940909206867218,-0.9667446613311768,-1.9915622472763062,0.06598927080631256,-0.23992687463760376,0.019454985857009888,-1.348323106765747,1.6355501413345337,0.7624637484550476,-0.09453748166561127,-0.7388665080070496,-0.40175318717956543,-0.20988520979881287,-2.1038360595703125,0.2040139138698578,-0.7780419588088989,-0.09850743412971497,0.7078418731689453,-1.8973324298858643,-0.526714026927948,-1.613542079925537,-0.9424059391021729,1.6423617601394653,-1.4521864652633667,2.108973503112793,0.5858622789382935,0.4634970426559448,1.084205150604248,-0.5223754644393921,0.9809751510620117,0.001259736716747284,-0.5142049193382263,-1.057185411453247,1.1930357217788696,0.3265732228755951,-0.6241384148597717,-1.0171209573745728,0.571713387966156,0.7654609680175781,0.6937404870986938,0.6158931255340576,-1.3128999471664429,1.4985545873641968,-0.9305373430252075,1.4306654930114746,-0.09383824467658997
types/ISTP_Gaben/img_4.png,-2.5089762210845947,-0.2557324171066284,-0.8312948942184448,0.8236783742904663,1.1017191410064697,-1.130682110786438,1.529175877571106,0.48717421293258667,-1.019444227218628,0.9138612747192383,0.5115059018135071,0.8181182742118835,0.9536817669868469,-0.7352583408355713,1.0356582403182983,0.7441636323928833,-0.5375558137893677,-0.5410744547843933,1.0031179189682007,-1.64780592918396,-0.07034751027822495,-1.5612975358963013,-0.950870931148529,0.8810364007949829,-0.45567354559898376,-1.4116199016571045,0.4830670654773712,0.9564531445503235,-1.1111515760421753,-1.3082895278930664,-2.245246410369873,0.990261971950531,-1.8248580694198608,-0.16518361866474152,0.6695895791053772,-1.332823634147644,0.27265942096710205,-0.8886102437973022,0.21423545479774475,-1.725730538368225,0.970821738243103,0.9451335072517395,-0.620701789855957,1.3157297372817993,-0.77193683385849,-1.1837950944900513,1.0935492515563965,-1.069895625114441,0.9941834807395935,0.5546447038650513,-1.97508704662323,2.097318172454834,-1.3040168285369873,0.293681800365448,-0.26714468002319336,0.010243382304906845,0.4674353003501892,0.8054341673851013,-1.202832818031311,0.19504454731941223,-0.9077304005622864,-0.15656062960624695,0.847876250743866,-0.6229633092880249,0.22789540886878967,1.2288789749145508,0.2226625382900238,1.943212866783142,0.40750253200531006,-0.01261833868920803,-0.019101213663816452,0.012599945068359375,-1.0976566076278687,1.0828579664230347,0.0665828138589859,-0.3700944185256958,-0.8361238241195679,1.3946424722671509,-1.51131010055542,0.18128861486911774,0.05748943239450455,-0.2570134401321411,-1.1483098268508911,-1.7775113582611084,-0.8554356694221497,1.290744662284851,-0.2851806879043579,0.1561933308839798,-2.627361297607422,0.6227226853370667,2.0054714679718018,-0.8253694772720337,1.0465866327285767,-0.38974910974502563,-0.15070441365242004,1.1920722723007202,-0.4152566194534302,0.09219134598970413,-0.05982588604092598,1.686502456665039,-3.35385799407959,1.1424164772033691,0.7053881883621216,-1.7297993898391724,0.4944184422492981,-1.5385524034500122,-0.1448107808828354,-0.13645420968532562,-0.7730052471160889,1.0742394924163818,-1.3973978757858276,0.47987818717956543,1.6287356615066528,-0.8535494804382324,-1.2543915510177612,0.26291516423225403,0.583687424659729,0.2064710259437561,-0.33541274070739746,1.3723664283752441,-1.9383723735809326,-0.11600016057491302,1.7731831073760986,0.32021400332450867,0.9714192748069763,0.23134112358093262,0.18834887444972992,0.6310571432113647
types/ISTP_Gaben/img_5.png,0.9163179397583008,-0.11801628768444061,0.06342841684818268,-0.07198129594326019,-0.4470631182193756,-1.2480862140655518,-0.8175727725028992,-0.5854479670524597,-2.5896472930908203,0.5676026940345764,-1.2587321996688843,1.395034909248352,-0.3009147047996521,-1.2761956453323364,0.5416911840438843,-1.3088853359222412,1.6703647375106812,0.30410081148147583,-0.521726131439209,-0.21644745767116547,-0.43812137842178345,-0.6666685938835144,-0.5401831865310669,-0.579940676689148,0.0005352422595024109,-0.8285109996795654,-0.39273956418037415,2.70613431930542,0.12290087342262268,-0.3305310606956482,0.3328718841075897,1.7552341222763062,-1.2260547876358032,0.12038100510835648,-0.7044699788093567,-1.3291736841201782,-0.21646997332572937,-0.5157588720321655,-0.7115654945373535,0.6828687191009521,-2.0521810054779053,0.4102996587753296,0.3642573654651642,0.7211728096008301,1.708681344985962,-0.7031616568565369,0.13305358588695526,0.9539721012115479,0.8224200010299683,-0.4691068232059479,-0.9049292206764221,-0.8488107919692993,-0.5658707022666931,0.5142960548400879,0.7963951230049133,0.20447257161140442,-0.6753054857254028,-0.02023005671799183,0.3945349454879761,0.9485810995101929,-0.21127408742904663,-0.1752728670835495,-0.39798691868782043,0.6943165063858032,-0.39952030777931213,1.3671290874481201,-0.10010477155447006,0.29568102955818176,-0.33873802423477173,-0.5881110429763794,-1.3746546506881714,0.30256393551826477,1.4119340181350708,1.2806396484375,1.6339271068572998,0.7354902625083923,-0.5370821952819824,-0.1453123539686203,0.41560792922973633,0.4064902663230896,0.037548936903476715,1.4910811185836792,-2.6103122234344482,-0.5883001089096069,-0.25316083431243896,-0.5944135189056396,-1.3003140687942505,-2.104121208190918,-0.24235734343528748,1.0373575687408447,0.006894461810588837,0.5652287602424622,-1.615132451057434,-1.697274923324585,1.2544811964035034,-0.2285223752260208,-0.9139675498008728,0.3268973231315613,1.3389596939086914,-0.830306351184845,0.4212076663970947,-0.890586256980896,-0.6957526206970215,-0.9070643782615662,0.5306122303009033,-0.3304935097694397,0.039873186498880386,-0.6755261421203613,0.5010472536087036,-1.744281530380249,-0.692066490650177,0.1305946409702301,-1.2125290632247925,-0.018895061686635017,0.5463365316390991,1.5789345502853394,-0.8285712003707886,0.06381098926067352,-0.6770406365394592,2.2131123542785645,0.6830886602401733,-0.9892245531082153,-0.32306063175201416,-0.27081298828125,-0.6755666732788086,0.4754880964756012,0.5742743015289307,-1.3720571994781494
types/ISTP_Gaben/img.png,-0.7320618629455566,0.0008166283369064331,-0.2730620503425598,0.9795498847961426,1.235388994216919,-0.022504320368170738,1.1661100387573242,2.302844524383545,-1.2822535037994385,2.0304410457611084,0.011541999876499176,0.9200927019119263,0.6579782366752625,-0.3961390256881714,0.09434332698583603,0.3099271059036255,0.7022221088409424,-1.0763863325119019,0.2341558039188385,1.2619483470916748,1.4257539510726929,-0.5642549395561218,-0.5699710845947266,0.14431597292423248,-0.9111867547035217,-1.0380477905273438,-0.15232354402542114,2.220449924468994,-0.7529574036598206,-1.1330959796905518,0.5152727365493774,0.19171614944934845,0.39225515723228455,-0.9334824085235596,0.08706272393465042,-1.740978479385376,-0.8066623210906982,-2.9403252601623535,-0.5263087153434753,-0.4362679719924927,-2.808917999267578,1.340269684791565,0.1651907116174698,-0.34442374110221863,0.7874153852462769,-0.48949137330055237,1.075416088104248,1.056924819946289,0.2868656516075134,0.1631913185119629,-1.7180275917053223,1.290798306465149,-2.6793863773345947,0.0619051456451416,-0.5239237546920776,-0.020444918423891068,0.5910905003547668,2.005336284637451,-0.6348012089729309,0.6555740833282471,-0.7477800250053406,0.8157161474227905,2.138500928878784,1.0264242887496948,0.3576536774635315,-0.03136803209781647,-0.335705041885376,3.4941039085388184,1.5142475366592407,0.12622776627540588,-0.35333046317100525,-0.2937788963317871,-0.961945116519928,2.577741861343384,0.29731443524360657,0.5817212462425232,1.0121198892593384,-0.06570476293563843,-0.4810013771057129,1.65791916847229,-0.8108943104743958,-0.6256308555603027,-0.2020944058895111,-2.030444860458374,0.24127286672592163,-0.1774826943874359,-0.2457706332206726,-1.1991480588912964,-1.7188392877578735,0.009866725653409958,0.1987013816833496,0.42497822642326355,0.38014790415763855,0.4912283420562744,-0.3562183976173401,-0.4922310411930084,-2.151773452758789,0.7823960185050964,-0.18242619931697845,1.1790884733200073,-1.883257269859314,1.20717453956604,0.41371843218803406,-1.114479660987854,-0.915714681148529,-1.6929070949554443,-0.48318836092948914,-1.39920175075531,-0.775630533695221,0.5384160876274109,-1.0045896768569946,0.2703849673271179,0.29446476697921753,0.07529662549495697,0.5471106767654419,2.133157968521118,1.19515061378479,0.6524739861488342,0.2576793134212494,1.3775384426116943,-0.15304791927337646,1.4937137365341187,-0.3052774667739868,0.7422136664390564,0.8761091828346252,-1.3029688596725464,-0.4990350902080536,0.7008334994316101
types/ESFJ_Gygo/img_1.png,-0.43113699555397034,0.39603951573371887,-1.5519156455993652,1.253480315208435,0.9336728453636169,0.3064804673194885,-0.5385704040527344,0.9382635951042175,-1.4566901922225952,0.45871859788894653,-1.9313406944274902,0.21063534915447235,2.197944402694702,0.09119057655334473,-0.04157577455043793,-1.253098487854004,1.520959734916687,-0.5935148596763611,0.3575868606567383,0.057775504887104034,0.012993432581424713,1.1938813924789429,-0.8297754526138306,0.1817411482334137,-0.4835268557071686,-1.9959959983825684,-0.6430085897445679,0.7063238024711609,-0.4800560474395752,-0.666091799736023,-0.4318006932735443,0.30150121450424194,-0.08233533799648285,-0.06653808057308197,-0.23898383975028992,-0.7982593774795532,-1.022294282913208,-0.1696951985359192,-1.92081618309021,-0.7809374332427979,0.8568553924560547,-0.4636557400226593,-0.18869099020957947,1.128566026687622,1.143347978591919,-0.7719513177871704,0.29940739274024963,0.6912931203842163,2.326932907104492,-1.9888290166854858,-0.22052006423473358,1.2627404928207397,-1.341717004776001,-0.8803339600563049,-1.4416821002960205,0.34526926279067993,-0.47678616642951965,-2.7492969036102295,-0.7307878732681274,-0.813956618309021,-1.8911511898040771,1.976963996887207,-0.6249120235443115,0.7121508717536926,-0.10765887051820755,-1.1507421731948853,1.1421613693237305,-0.36823755502700806,0.5115067958831787,-0.6173268556594849,0.2703593969345093,0.12767952680587769,-0.5093888640403748,-0.16604210436344147,1.245286226272583,-0.9283433556556702,0.1805592179298401,-0.19557037949562073,-0.608311116695404,-0.5581183433532715,2.1042070388793945,0.8671600818634033,-1.4582887887954712,-0.46223413944244385,0.831193745136261,1.3283449411392212,-0.7422863841056824,-0.4915590286254883,-1.884987711906433,0.48548224568367004,1.5530167818069458,1.5099353790283203,0.515215277671814,0.19621017575263977,0.24925073981285095,0.3752943277359009,2.854283332824707,0.2502659261226654,1.1357178688049316,2.0120952129364014,-1.0727410316467285,0.26196789741516113,0.12489724904298782,-0.1315915584564209,-0.9362658262252808,-0.010275371372699738,0.4485016465187073,-0.4028087258338928,-0.6065195202827454,-0.43147823214530945,-3.2442049980163574,1.202012300491333,-1.2581676244735718,0.2514118254184723,-0.4725230932235718,-1.0179767608642578,-0.17026251554489136,0.6021229028701782,-0.3300657868385315,0.2048027068376541,0.12337080389261246,0.2720685303211212,0.016817651689052582,0.8468101024627686,1.1528302431106567,-0.49899691343307495,-0.35849863290786743,0.7796213030815125
types/ESFJ_Gygo/img_2.png,-0.3491652011871338,-0.46691805124282837,-0.023911921307444572,-0.5580728650093079,0.1061997264623642,-0.4491126537322998,-0.2706419825553894,-0.31354644894599915,-0.24400046467781067,0.10755549371242523,0.2377605438232422,0.06228196620941162,-0.184004008769989,-0.44188812375068665,0.18554621934890747,-0.1713738739490509,0.3720787763595581,-0.1583850234746933,0.47467920184135437,-0.5737066864967346,-0.4826533794403076,-0.28712114691734314,-0.3597103953361511,0.12121305614709854,0.08697809278964996,0.33537980914115906,0.6686208248138428,0.24073252081871033,-0.30702388286590576,-0.41056472063064575,-0.5163975954055786,-0.035830553621053696,-0.2769879698753357,-0.3639073371887207,0.7962744832038879,0.2832513153553009,0.7116196155548096,-0.1497739851474762,0.49482786655426025,0.07161565124988556,0.30260616540908813,0.27311649918556213,0.09858407825231552,0.4721570611000061,-0.5125287771224976,-0.7013021111488342,0.10656049847602844,-0.2623171806335449,0.527312695980072,0.033702921122312546,-0.34610170125961304,0.23196004331111908,0.8103444576263428,-0.5256705284118652,0.09626094996929169,0.4167023301124573,0.5586321353912354,0.3879029154777527,-0.03845510631799698,-0.40200182795524597,-0.2692464292049408,-0.1895948052406311,-0.3055899441242218,0.6450330018997192,0.06865864992141724,1.0321065187454224,0.3528972268104553,0.20378565788269043,0.47880905866622925,-0.18231503665447235,-0.13593192398548126,-0.09867626428604126,0.03723078966140747,-0.7264898419380188,-0.3244033753871918,-0.018871206790208817,-0.302778959274292,0.17792609333992004,-0.21837839484214783,-0.8604028224945068,-0.49474602937698364,-0.30555564165115356,0.005478907376527786,0.24297165870666504,0.29914578795433044,-0.35890278220176697,0.09709908813238144,0.26798057556152344,-0.3255188763141632,0.8065840005874634,0.09934648871421814,-0.025914736092090607,-0.3670768439769745,-0.07456055283546448,0.10996813327074051,0.3139520585536957,0.0730590671300888,-0.5950167179107666,-0.08919313549995422,0.3225829303264618,0.1955702155828476,0.5187790393829346,0.5191136002540588,-0.5832516551017761,0.32823359966278076,0.19963295757770538,0.14068111777305603,-0.1699867993593216,-0.11545651406049728,-0.8862698078155518,0.36419785022735596,0.3918651342391968,0.648297905921936,0.4449501633644104,0.1081751137971878,0.19881439208984375,0.004895024001598358,0.8897565603256226,1.1742973327636719,0.7355537414550781,-0.19578126072883606,-0.6837794780731201,0.1709693968296051,0.11823219060897827,0.48011231422424316,-0.4672222435474396,1.0413777828216553,-0.10958533734083176
types/ESFJ_Gygo/img_3.png,-0.8282983303070068,1.9603220224380493,0.7883961200714111,-0.4536726772785187,-0.03349621966481209,-1.799542784690857,1.6804814338684082,0.1528892070055008,-0.7141944169998169,0.09218735992908478,-0.11849603056907654,1.9065227508544922,-0.9772078990936279,0.8050621747970581,-0.10374100506305695,0.39829766750335693,-0.29440543055534363,-0.3554283380508423,-0.6158797144889832,-0.7517582178115845,-1.0473066568374634,-0.6647703647613525,-0.6648105382919312,-0.6269407272338867,-2.805553674697876,2.857389211654663,0.39750176668167114,0.18876686692237854,-0.6546366810798645,0.48081865906715393,-1.4004677534103394,-0.244224414229393,-1.6316879987716675,0.27098414301872253,1.5590474605560303,1.547309160232544,-2.7148759365081787,-1.4889229536056519,0.8735145330429077,0.9536274671554565,-1.0021215677261353,0.35759568214416504,0.1692715883255005,1.6679648160934448,0.3835405707359314,-0.43494081497192383,-0.2349807620048523,-1.0079652070999146,-0.9873759746551514,-0.853290319442749,1.8486409187316895,-0.27657878398895264,-0.03494945168495178,-1.0131311416625977,0.25638192892074585,-0.7720843553543091,0.5354482531547546,1.3364958763122559,-1.2971528768539429,0.23712947964668274,-1.0706877708435059,-0.61529141664505,-0.9306908845901489,-1.0363553762435913,1.236401081085205,-0.7740108370780945,-1.4908121824264526,0.5859839916229248,0.7113454937934875,2.095004081726074,1.7888015508651733,1.8715741634368896,0.6286121606826782,0.02538871020078659,2.2577579021453857,0.5382443070411682,0.9094511270523071,1.4685739278793335,0.6627290844917297,-0.7750309705734253,-0.1958026885986328,0.5943853855133057,-0.04727180302143097,-3.457153797149658,-2.0641353130340576,0.5105782747268677,-0.9769341945648193,-0.6975638270378113,0.15276193618774414,-0.35142606496810913,-0.3248968720436096,0.8002126216888428,-0.4045352637767792,-0.6013908982276917,0.574765145778656,-0.3482954800128937,-0.379697322845459,0.751715898513794,0.9120762348175049,0.25713029503822327,0.05029730498790741,0.8387709856033325,-1.2282261848449707,0.16466966271400452,0.5302562117576599,-1.8284891843795776,1.5070242881774902,-0.17338448762893677,-1.1179085969924927,0.08130074292421341,0.9872886538505554,1.860353708267212,0.2038395255804062,0.8789655566215515,0.7547248005867004,2.2880117893218994,1.351712942123413,1.3251802921295166,1.3741846084594727,0.41232866048812866,-0.15180319547653198,-0.050019241869449615,0.6402155756950378,-1.820669174194336,-0.8842466473579407,-0.4369477331638336,-0.5692735910415649,-0.2612837851047516
types/ESFJ_Gygo/img_7.png,-0.010877035558223724,0.9166274070739746,-1.1495771408081055,0.8176809549331665,2.3083765506744385,-1.446362853050232,0.7944316864013672,-0.39815554022789,-1.6779329776763916,1.2885339260101318,-0.7172969579696655,0.3595573306083679,-0.8379263281822205,-0.2350042164325714,-0.13505275547504425,-0.7795516848564148,-0.6596308946609497,-0.18213894963264465,-0.5923588275909424,-0.0372963473200798,0.17436888813972473,0.8025804758071899,1.1331273317337036,0.43846508860588074,-0.0423596128821373,0.3501302897930145,0.7047865986824036,0.395397424697876,-1.0616340637207031,-0.6790310144424438,1.9282037019729614,0.7365367412567139,0.7774934768676758,-0.3162058889865875,-1.2802925109863281,-0.9822227954864502,1.0038079023361206,-1.7671492099761963,-1.5829107761383057,-0.7362730503082275,-1.715052843093872,-1.0544356107711792,0.9829332828521729,0.7955417633056641,-0.9594981670379639,-0.24666325747966766,-0.2540062963962555,-1.1202304363250732,-1.1594634056091309,0.8145675659179688,-1.141776204109192,0.34834522008895874,0.6226410269737244,-0.5488688945770264,0.9626806378364563,-0.26472339034080505,-0.8823445439338684,1.0327694416046143,-0.3837706446647644,-1.733373761177063,-1.6011157035827637,-0.7215930819511414,-0.5950755476951599,-0.0885804146528244,-1.4157835245132446,0.03513782098889351,-0.21289870142936707,0.7836841344833374,-0.9227834343910217,1.636062502861023,1.5347900390625,-0.9742246866226196,1.277814269065857,0.20763038098812103,-0.3445926904678345,0.7646124362945557,1.0798503160476685,0.6389458775520325,-0.5900225639343262,-0.15648037195205688,0.15501976013183594,1.9794961214065552,-0.461606502532959,-0.06497320532798767,0.203181654214859,1.6218156814575195,-2.236208200454712,-0.8580719828605652,1.5840402841567993,-0.2785244286060333,-0.1019018366932869,-1.9492731094360352,-1.3098225593566895,-0.1649968922138214,1.3053561449050903,-1.390883445739746,-1.6127053499221802,0.44990262389183044,0.22071623802185059,-1.469692349433899,-0.6835302710533142,-0.202373206615448,0.5012394189834595,-1.943925380706787,-0.7392169833183289,-1.790392518043518,2.3282735347747803,0.1414937525987625,0.5281969308853149,0.3369966745376587,-2.795847177505493,2.7369470596313477,1.0250753164291382,1.3220112323760986,0.6522008776664734,0.3968766927719116,-0.14179585874080658,-2.014162063598633,-0.5691561102867126,1.1466261148452759,1.1221314668655396,-1.0101654529571533,0.07397092133760452,-0.30095088481903076,0.9918197393417358,-1.0960657596588135,2.3207430839538574,1.8958179950714111
types/ESFJ_Gygo/img_6.png,-0.30199727416038513,-0.33704471588134766,-0.3282032608985901,-0.48750221729278564,0.2852344214916229,-0.26655837893486023,-0.16099363565444946,0.11294890940189362,0.053582288324832916,0.09661597013473511,0.21551868319511414,0.2700675129890442,-0.00668741762638092,-0.5846022963523865,-0.057732999324798584,-0.1505768895149231,-0.057729512453079224,-0.041780538856983185,0.6296589970588684,-1.004841923713684,-0.29305794835090637,-0.01582164689898491,0.024098016321659088,0.0734606385231018,0.08213403820991516,-0.269387811422348,0.8450337648391724,0.09517817944288254,-0.5461752414703369,-0.3846818208694458,-1.1398134231567383,-0.004580236971378326,-0.3067471385002136,0.12326417118310928,0.585990846157074,0.2046390324831009,0.5002996325492859,-0.05619851499795914,0.31925898790359497,-0.4417310655117035,0.16505488753318787,0.33262935280799866,-0.2072407603263855,0.1551060527563095,-0.27278488874435425,-0.6185939908027649,0.037348415702581406,-0.5066808462142944,0.5594832897186279,-0.01044480875134468,-0.9866840243339539,0.41348177194595337,0.45690762996673584,-0.3187970221042633,-0.0941668301820755,0.5524635910987854,0.3235439658164978,0.10520316660404205,-0.4186149537563324,-0.7221511006355286,-0.35091468691825867,0.2557368278503418,-0.2500867545604706,0.3874559700489044,0.15865498781204224,1.1395765542984009,0.17433509230613708,0.33837366104125977,-0.26003000140190125,-0.11743633449077606,0.4451652765274048,0.06871776282787323,-0.025288209319114685,-0.5368409752845764,0.4535319209098816,-0.3949364721775055,-0.45180535316467285,0.6460888981819153,-0.2688244879245758,-0.5570864677429199,-0.3576110601425171,-0.3184678852558136,-0.3906438648700714,0.031427204608917236,0.36567583680152893,0.34319981932640076,-0.0032017603516578674,0.11036591231822968,-0.33806663751602173,0.44924062490463257,0.5148959159851074,0.3444676697254181,-0.15260779857635498,-0.10141479223966599,0.3839533030986786,0.613496720790863,-0.2522890567779541,-0.5995521545410156,-0.32084035873413086,0.3843581974506378,-0.16375732421875,0.4639093279838562,0.5879754424095154,-0.9580631852149963,0.5265056490898132,0.2685714364051819,0.013590231537818909,-0.4074483811855316,-0.32325056195259094,-0.4748813211917877,0.3007962703704834,0.19685061275959015,0.1947523057460785,0.5861643552780151,-0.08628479391336441,0.527940034866333,-0.5278359651565552,0.797697901725769,0.7292701601982117,0.8939409255981445,-0.7869582176208496,-0.44573885202407837,0.39922553300857544,0.227241650223732,0.6184168457984924,-0.24721547961235046,0.9739606976509094,-0.011320970952510834
types/ESFJ_Gygo/img_4.png,-0.11044169962406158,-0.6842048168182373,0.2819511294364929,0.2734661102294922,1.9755933284759521,0.6033421158790588,-0.2520931661128998,0.92649906873703,0.9214441180229187,0.7954359650611877,-1.230307698249817,-0.5893168449401855,0.5628378391265869,0.13131627440452576,-0.7157948017120361,-2.100853681564331,0.7661761045455933,-1.3422006368637085,-0.0741678774356842,0.060210347175598145,0.7210903167724609,0.22234150767326355,-0.6911863684654236,1.0537303686141968,0.17957140505313873,-1.1948778629302979,0.3772065341472626,0.3001704216003418,-0.5202851891517639,-1.8194973468780518,-0.28591200709342957,-0.6310377717018127,-1.3133440017700195,-1.3784797191619873,-0.24117177724838257,-0.043778494000434875,-0.835749626159668,-1.248453974723816,-0.5661627054214478,-0.9513880014419556,-0.6081835627555847,-1.0622259378433228,-0.07973791658878326,0.7645666599273682,0.34564775228500366,-0.8628280162811279,0.884501576423645,-0.18718959391117096,0.06400233507156372,-1.1586741209030151,-1.5815094709396362,1.347333312034607,-2.1889889240264893,-1.7927677631378174,-0.6852412223815918,-0.30546581745147705,0.4609735608100891,-1.5330939292907715,-0.5049844980239868,0.9653079509735107,0.3275410234928131,0.2954474687576294,0.4253753423690796,-0.49102821946144104,-1.1936172246932983,1.75558340549469,-0.1622602343559265,0.9347778558731079,-0.0011178851127624512,0.05700017511844635,-0.4130116403102875,-0.1986793875694275,0.5051999688148499,-0.09218244254589081,1.2846550941467285,0.6231566667556763,0.4799523651599884,-0.15913182497024536,-0.17107877135276794,1.199832558631897,-0.6981574296951294,0.8941465616226196,0.12092208862304688,0.14066728949546814,0.24505817890167236,0.5350489616394043,0.3257225751876831,-1.9681456089019775,0.8555446863174438,0.6111882925033569,0.7737488746643066,0.5054818987846375,-0.7421903014183044,0.0005025230348110199,0.525266170501709,0.6579270958900452,-1.0051707029342651,0.9307658672332764,-0.17044579982757568,0.8042734861373901,0.32768863439559937,0.29394835233688354,0.08663009107112885,-1.1517258882522583,0.7316112518310547,-1.1518442630767822,0.5117145776748657,-0.2307572364807129,0.65164715051651,-0.7468884587287903,-0.5477786660194397,-0.6559363007545471,0.6227203607559204,-0.11385463178157806,-0.3607483506202698,0.6147133111953735,-0.34406498074531555,1.8198660612106323,-0.4843229353427887,0.9840259552001953,0.2889014780521393,0.8278405666351318,-1.329540729522705,1.0119379758834839,0.37829726934432983,-0.5186873078346252,0.11507076770067215,-0.820488452911377
types/ESFJ_Gygo/img_5.png,-1.1996523141860962,0.6274492740631104,-0.387375146150589,0.8443491458892822,2.5770530700683594,-0.40831634402275085,0.42518171668052673,1.0107446908950806,0.5950676798820496,1.2306382656097412,-1.0018540620803833,-0.4352010488510132,-0.06516946852207184,-0.14070817828178406,1.9349706172943115,-1.4543503522872925,0.02569817751646042,0.6247959733009338,-0.27874040603637695,1.7558530569076538,0.2756662368774414,-0.6587648987770081,0.1480627954006195,1.0533589124679565,-1.942978024482727,-0.9859927296638489,0.5232500433921814,-0.6537277102470398,-1.4043761491775513,-1.4195431470870972,0.4505791962146759,-1.0084019899368286,-0.7878720164299011,-1.219766616821289,0.9292369484901428,-0.2818218767642975,0.6816613674163818,-0.39038515090942383,1.7740659713745117,0.6253037452697754,-0.4981348514556885,-0.3221839368343353,0.3018519878387451,-0.9479723572731018,-0.2445245236158371,-0.50359046459198,-0.8267968893051147,-1.1230456829071045,1.0069952011108398,-1.0730302333831787,-1.4996275901794434,1.4244838953018188,0.025946859270334244,-0.552666425704956,-0.31904998421669006,-1.3018598556518555,1.109770655632019,0.18453554809093475,0.7172447443008423,-1.114286184310913,0.18634408712387085,0.7806029319763184,-0.4330504536628723,-0.41598573327064514,-0.8606212735176086,1.4365196228027344,2.540111780166626,0.37416017055511475,0.39524900913238525,1.2935011386871338,-0.7347409725189209,0.06708817183971405,0.7931244969367981,0.5350099205970764,-0.9603524804115295,0.6730301380157471,-0.3109517991542816,-0.7802575826644897,-2.399313449859619,0.2605867385864258,-0.204390287399292,1.1762460470199585,0.28473857045173645,0.05910933017730713,-0.6224372386932373,0.8865095376968384,-0.39592796564102173,-0.060089170932769775,-1.6237900257110596,1.4761407375335693,0.06597302109003067,-0.09119291603565216,-1.9211889505386353,1.1191915273666382,-2.6226680278778076,-1.4349055290222168,-0.8876475691795349,0.03333812206983566,1.2683558464050293,1.8035459518432617,-2.5369341373443604,-0.15505191683769226,-0.8937816619873047,-0.25882038474082947,1.4142320156097412,-0.5635886788368225,0.19167308509349823,0.6831445693969727,0.7674748301506042,1.84243905544281,-0.15648221969604492,-0.2176772505044937,0.09681899845600128,0.18534737825393677,-0.8301084637641907,0.9670330286026001,-0.776402473449707,-1.0050357580184937,0.28466126322746277,0.4879384934902191,-0.17937222123146057,0.03725013881921768,-2.127040386199951,-1.729763388633728,-0.7282198667526245,-0.8162118792533875,0.9228211045265198,-1.7411134243011475
types/ESFJ_Gygo/img.png,-2.6551034450531006,-0.41825535893440247,-0.2521054148674011,-0.06985776871442795,0.11873582750558853,-2.2288644313812256,-0.7684044241905212,1.0089294910430908,-1.574938416481018,0.6695833802223206,-2.6381938457489014,-1.0855633020401,0.5850768089294434,0.30708760023117065,2.6359400749206543,-0.552099347114563,-0.5754193067550659,-0.6885858774185181,-1.971351146697998,-1.896873116493225,-1.7551707029342651,-0.15211234986782074,-0.130886510014534,2.1171374320983887,-0.18082313239574432,1.1637159585952759,1.2229372262954712,1.5153964757919312,0.4548259973526001,-1.0949699878692627,-1.1343331336975098,-0.615279495716095,-1.0265631675720215,0.9347981214523315,1.253287672996521,0.677635908126831,-2.0452723503112793,0.13366086781024933,0.2603437304496765,0.0010772421956062317,1.1866581439971924,-0.5172414183616638,-0.3601342439651489,0.744475781917572,1.4890385866165161,-0.9322701096534729,-0.2651565670967102,0.22723425924777985,0.13001836836338043,-0.9579625129699707,-1.4198267459869385,2.5081050395965576,0.10503597557544708,0.37654393911361694,-0.006998412311077118,-0.12237070500850677,0.09820525348186493,-1.4738210439682007,-0.8335361480712891,-1.1884645223617554,-0.40790098905563354,-0.26832014322280884,-1.6596391201019287,1.0297988653182983,-1.3305838108062744,0.08759740740060806,-1.427320122718811,0.14531193673610687,-0.02016347087919712,-0.7956655025482178,-0.9176210761070251,0.4913705289363861,1.1112797260284424,-2.162677049636841,1.1631991863250732,-1.0167330503463745,-1.786808729171753,-0.026229236274957657,-0.2543315887451172,-0.7660444974899292,0.18671965599060059,0.9304541349411011,-1.2306913137435913,-0.32753968238830566,1.0410199165344238,0.5527198314666748,-0.5019818544387817,1.3278542757034302,-1.168769121170044,0.20031622052192688,0.5571171045303345,0.2826765775680542,0.7702140808105469,0.6504320502281189,1.4018577337265015,-0.30619093775749207,0.5328963398933411,0.7560164332389832,1.3145442008972168,0.9939073324203491,0.5540125370025635,2.015357732772827,-0.9898911714553833,1.2169054746627808,0.6611602902412415,0.09538603574037552,-0.5300363302230835,0.28484076261520386,-1.2551555633544922,0.35261601209640503,-0.7655563354492188,0.5900890231132507,-0.2364453673362732,-0.07644563913345337,-1.1249449253082275,0.9070032835006714,0.2164129614830017,-0.46909773349761963,-0.1816435158252716,-0.30120959877967834,1.1288597583770752,0.5521939992904663,0.03238367289304733,-2.3668978214263916,-0.8943027853965759,-0.5304696559906006,1.7475860118865967,0.8592783212661743
types/ISFJ_Dryzer/img_1.png,0.5345817804336548,0.3213045597076416,-0.31784701347351074,-1.0081493854522705,1.2249000072479248,-0.3917321264743805,0.13180981576442719,-1.269993543624878,-2.2753281593322754,0.25084438920021057,-2.137693405151367,-0.8885400295257568,-0.726823627948761,-0.5632323622703552,0.7758947610855103,-0.7571031451225281,-0.6619901657104492,-1.4534717798233032,0.3884647488594055,-0.566973090171814,0.8300331830978394,1.4211831092834473,0.38962307572364807,-1.4786782264709473,-0.570832371711731,-0.9791821837425232,-0.10677681118249893,0.1958596110343933,-0.042640261352062225,-0.6495684385299683,0.6645926237106323,-0.7884293794631958,1.0611518621444702,-0.3802427649497986,0.20661821961402893,0.14895223081111908,-0.3971825838088989,-1.558334469795227,-0.5708963871002197,-1.1562420129776,-1.6331205368041992,-1.381212592124939,-1.9905117750167847,-0.8581971526145935,1.4157426357269287,-0.7284367680549622,-1.6874167919158936,0.9660816192626953,0.47333991527557373,-1.6952810287475586,-1.6670103073120117,0.6775786280632019,-1.6377356052398682,-0.4244019389152527,-0.7337511777877808,-0.3664538562297821,0.04801541566848755,-0.2512089014053345,-1.9324557781219482,-1.1686683893203735,-1.3077064752578735,-0.4911768436431885,-0.24529065191745758,0.36386704444885254,-2.9394078254699707,1.1808953285217285,1.8196210861206055,-0.3959803581237793,0.973619818687439,0.8932782411575317,1.0353386402130127,-1.8421207666397095,-0.5116808414459229,-2.114328622817993,1.9961766004562378,0.34445780515670776,-0.5662082433700562,0.2868405878543854,-0.1287732571363449,0.3615376949310303,0.8267147541046143,2.3882694244384766,-0.3555813729763031,-0.3715718984603882,0.8004339933395386,1.213600516319275,-2.1617159843444824,-0.04374033585190773,0.7350374460220337,-0.005429856479167938,0.9821234345436096,-0.47507184743881226,1.0560303926467896,0.4851900041103363,0.3918972909450531,0.12507635354995728,-1.2655946016311646,0.45747798681259155,1.0136535167694092,1.6821590662002563,-0.7087817788124084,-0.16717635095119476,0.5929288864135742,0.5655403137207031,0.6091672778129578,-0.8765051960945129,1.3492263555526733,0.9408316612243652,-0.6368574500083923,0.2567938268184662,-3.485466718673706,0.6813034415245056,-1.5542280673980713,0.13310466706752777,0.39271843433380127,0.2480296790599823,-0.16683819890022278,0.31634122133255005,-1.3670802116394043,-0.12338832020759583,1.5190274715423584,0.8535686731338501,-0.16227740049362183,-0.4695635139942169,1.8996106386184692,-1.0208438634872437,-0.678768515586853,1.5493758916854858
types/ISFJ_Dryzer/img_2.png,-2.5081262588500977,0.627070426940918,1.3772673606872559,-1.5060580968856812,-0.8567838668823242,-0.9967538714408875,-0.7218058705329895,0.7646359205245972,0.9964693188667297,0.3166051506996155,-1.0473880767822266,1.1191556453704834,-2.524892568588257,1.2807848453521729,-0.6563531160354614,-0.5372288227081299,-1.6733800172805786,0.5441921949386597,0.4382769763469696,-0.5761675834655762,0.25190797448158264,-1.185929536819458,-1.2582242488861084,-0.8348209261894226,-1.381908893585205,1.6010098457336426,0.8554369211196899,-0.5823721885681152,0.2238059788942337,1.5074855089187622,-1.4237409830093384,-0.004371460527181625,-0.9106046557426453,-0.08172541856765747,-0.007719002664089203,0.1591852903366089,-1.9302270412445068,-1.9796619415283203,-0.45478159189224243,-1.4984726905822754,0.8545925617218018,-1.3972570896148682,-0.8703118562698364,1.5153656005859375,1.337531328201294,-0.21453461050987244,-2.194125175476074,0.07335883378982544,-0.7610809206962585,-0.3175479471683502,0.4389219284057617,0.7489960193634033,1.7775596380233765,0.17676720023155212,-0.2539904713630676,-2.6941566467285156,0.5499871969223022,-0.6441980600357056,-0.8581793904304504,-1.200486660003662,-0.5744481086730957,1.1257847547531128,0.2881055474281311,0.5548230409622192,0.07042813301086426,1.138045072555542,-0.1386769711971283,-1.2406649589538574,0.5355848073959351,1.3084619045257568,0.8968586325645447,0.29359543323516846,0.689106822013855,-0.2328103929758072,-1.0819168090820312,-1.5996731519699097,0.4909164607524872,-0.021971803158521652,2.417964458465576,-0.3594058156013489,-0.08250009268522263,-0.23904094099998474,0.06560710072517395,-2.1516573429107666,-0.6485820412635803,-0.34476447105407715,-1.906325340270996,1.0079104900360107,0.04630637168884277,0.3496267795562744,-0.037210531532764435,0.5880913734436035,-0.5120370984077454,2.0721383094787598,0.5192354321479797,-0.7487519383430481,1.7575242519378662,1.9139868021011353,-0.06450162082910538,0.0153582151979208,1.0650452375411987,-0.2518637776374817,0.7980542778968811,2.6370856761932373,-0.16745564341545105,1.32052481174469,-0.12790273129940033,0.7014510631561279,-2.2119836807250977,1.73277747631073,0.8347980380058289,-0.5295230746269226,0.4849385619163513,0.9463323950767517,-0.24984502792358398,0.21269658207893372,1.191488265991211,-0.33236581087112427,0.6749544739723206,-1.1712749004364014,-0.1741355061531067,1.4301822185516357,-0.8231383562088013,-1.2262145280838013,-0.5329596996307373,0.030972443521022797,1.2783756256103516,0.27535611391067505
types/ISFJ_Dryzer/img_3.png,-0.8729406595230103,0.17772126197814941,-1.4609806537628174,0.014993295073509216,-0.05495932325720787,-0.3901979327201843,0.24390177428722382,-0.33371347188949585,0.20265987515449524,-0.6236617565155029,0.8608031272888184,-0.6502087712287903,0.9663625359535217,-0.35930439829826355,0.25734245777130127,1.2697076797485352,-2.010132074356079,-2.9502010345458984,-1.7113136053085327,-1.9084850549697876,-1.1248016357421875,0.017019828781485558,0.10070561617612839,0.2832452952861786,0.8153768181800842,-0.259188175201416,0.7400572299957275,0.5312343835830688,-0.1465694159269333,1.2970315217971802,-1.6183949708938599,-0.4062565863132477,-0.654650866985321,1.6146095991134644,1.4690710306167603,1.043392300605774,-0.6841054558753967,-1.7034084796905518,0.10412265360355377,0.10681352764368057,1.8876956701278687,0.3107823133468628,-0.7281779050827026,0.46731263399124146,0.49696287512779236,-2.7674143314361572,1.276477336883545,0.29139724373817444,-0.49770277738571167,-1.5675899982452393,0.2305583506822586,-0.18966476619243622,-0.8580082058906555,0.08461758494377136,-2.17500638961792,-0.619166374206543,1.3187577724456787,-0.22205235064029694,-0.5553613901138306,-0.29565221071243286,0.2144877314567566,-1.0996346473693848,-0.7859720587730408,-1.216774821281433,0.23446926474571228,-0.6284812688827515,-0.8982787132263184,0.5269842743873596,-0.961895763874054,-1.87699294090271,1.1183583736419678,0.06531225144863129,-0.43858104944229126,0.7160273790359497,0.7329124808311462,0.4373611509799957,2.3046257495880127,3.4657459259033203,1.564784288406372,-1.4367526769638062,-0.41805723309516907,0.5716638565063477,-1.0793156623840332,-0.700034499168396,-0.37367087602615356,-1.7622746229171753,1.7089613676071167,-1.0715794563293457,-0.5843015909194946,0.44941556453704834,0.23261606693267822,-0.23083369433879852,1.13996160030365,-0.48084208369255066,-0.002807609736919403,2.715834140777588,-0.7232092618942261,0.4707908034324646,-1.8372952938079834,0.8364096283912659,-0.44722622632980347,-1.0515586137771606,-0.6857466101646423,-0.22646299004554749,0.46033066511154175,0.4494401216506958,-0.2561652958393097,-0.7707371711730957,-1.037318468093872,0.7831206321716309,0.8517540097236633,0.28995293378829956,1.9712861776351929,-1.4692320823669434,0.8024299144744873,1.0588055849075317,0.4003787934780121,-0.6687926054000854,-0.35458502173423767,1.1807621717453003,-0.03156408667564392,-1.1284184455871582,0.837547242641449,1.6105742454528809,1.7460676431655884,0.24525931477546692,-0.3504193127155304,0.0715167373418808
types/ISFJ_Dryzer/img_7.png,-1.1011532545089722,0.09307900071144104,-0.9973542094230652,-0.5688840746879578,-0.12118709087371826,0.43289914727211,-0.39933961629867554,-0.794937252998352,0.007893532514572144,-0.19814933836460114,-0.2221510410308838,-0.16109050810337067,-0.713089644908905,-0.5449519157409668,-0.011295050382614136,-0.3586212992668152,1.4009418487548828,-1.310931921005249,-0.2767344117164612,-0.6857191920280457,0.7402458190917969,-0.202934131026268,-0.499402791261673,-0.8189289569854736,0.9935864210128784,-0.21572422981262207,0.5924208164215088,0.24399006366729736,-0.39705729484558105,0.6730416417121887,0.3100563883781433,0.30576881766319275,-0.5646625757217407,1.2566277980804443,0.6322408318519592,0.3088240325450897,0.8862251043319702,-0.9335203766822815,0.039451636373996735,-1.2690024375915527,0.1045733094215393,0.9978073239326477,-1.0923184156417847,0.5995842218399048,-0.24646730720996857,-0.41220197081565857,0.7521005868911743,-1.137528657913208,-0.29144346714019775,0.4688029885292053,-1.8950034379959106,-0.7308220863342285,0.6750677227973938,0.23951469361782074,-1.0451548099517822,-0.35874566435813904,1.045929193496704,-0.389698326587677,-1.0052376985549927,-1.2321302890777588,-0.714420735836029,0.35693198442459106,0.035495441406965256,0.9478927850723267,-0.11850645393133163,0.21770085394382477,0.25702136754989624,-0.4833809733390808,0.9862030744552612,-0.8705337047576904,1.3610467910766602,0.1851363182067871,-1.170140266418457,-0.8877320885658264,0.33189457654953003,0.380911648273468,0.8743990659713745,0.012951266020536423,1.4736894369125366,-0.22475235164165497,-0.05265584588050842,0.04094184190034866,0.23721663653850555,-0.4628099203109741,0.5608994364738464,0.8976517915725708,0.784018337726593,0.29500627517700195,-1.0686167478561401,1.452452540397644,-0.015418849885463715,-0.7114595174789429,-1.1378282308578491,0.40150874853134155,0.8242424130439758,1.5013924837112427,-0.39440831542015076,-0.01758129894733429,-0.06371596455574036,1.0749754905700684,0.3772897720336914,1.0486732721328735,0.12496605515480042,-0.22502106428146362,0.31078046560287476,0.7305666208267212,-0.8681286573410034,-0.31923386454582214,-0.5467233061790466,-1.4836711883544922,-0.8277323246002197,-0.3468109965324402,0.33908385038375854,0.6928591132164001,-0.30266448855400085,0.07123440504074097,-0.6982301473617554,0.2566993832588196,0.5684344172477722,0.6057384014129639,0.8477978706359863,-0.4485882520675659,0.43620896339416504,-0.2079736292362213,0.46789586544036865,-0.7041260600090027,1.3643337488174438,0.17349685728549957
types/ISFJ_Dryzer/img_6.png,0.07647379487752914,-1.311168909072876,-1.1138439178466797,2.0407800674438477,0.025562765076756477,-2.2447025775909424,0.2842257022857666,-0.17829881608486176,-1.4145511388778687,2.4207327365875244,-0.9177173376083374,-1.3570654392242432,1.6815836429595947,0.05661584436893463,0.01188167929649353,-0.17282158136367798,-1.2627896070480347,-0.4879149794578552,-0.7125653624534607,-0.0642857700586319,0.2037683129310608,0.46753185987472534,-0.19184908270835876,2.2649502754211426,2.4402387142181396,0.20357605814933777,-0.9978891015052795,0.6217021346092224,1.6022887229919434,-1.6297317743301392,1.5255992412567139,0.12357568740844727,-0.22063949704170227,1.6780470609664917,-0.6454804539680481,-0.6164568066596985,0.43247297406196594,0.12986481189727783,0.15367870032787323,-0.9926023483276367,0.8195910453796387,2.906923294067383,1.6267175674438477,0.7947766780853271,-1.8485527038574219,0.4871399402618408,-0.24646151065826416,0.05966901779174805,-0.2945913076400757,-0.9649096727371216,-0.4079415798187256,-0.5052585005760193,-2.0903682708740234,0.7758191227912903,-0.14852041006088257,-0.2720384895801544,0.3987254202365875,-0.41562554240226746,1.3960250616073608,-0.07217290252447128,0.7534027695655823,0.2395763248205185,-2.104801654815674,-0.2944108545780182,-0.11293498426675797,0.31932517886161804,-1.3344290256500244,0.6610530018806458,-0.9935369491577148,0.34755241870880127,-0.4204208552837372,0.04583492875099182,0.40607988834381104,-0.15786820650100708,0.43986976146698,0.4979032874107361,1.033318042755127,1.798470377922058,0.05122663825750351,1.10027277469635,0.3045574128627777,-0.14977781474590302,-0.5533823370933533,-0.4177704155445099,-0.8832982778549194,-0.07992219924926758,-0.9010087251663208,-0.04072892293334007,-0.8204333782196045,0.2873232662677765,2.245258092880249,0.335789293050766,-1.32514488697052,0.0004931408911943436,0.9236500263214111,-0.767382025718689,0.05770661309361458,-0.1371474266052246,1.005903959274292,-1.3781230449676514,-1.3475452661514282,0.07183576375246048,-1.238997220993042,-1.365390658378601,0.42716115713119507,-0.01912238448858261,1.1642929315567017,-1.1551963090896606,-0.7427582144737244,-0.20463423430919647,-0.0333828404545784,-0.6161739826202393,0.2873413562774658,-0.8790607452392578,0.7209894061088562,0.6734068393707275,0.19492819905281067,-1.6661778688430786,-0.2874363660812378,1.3465576171875,0.9593489170074463,-0.9583374261856079,-0.502957284450531,0.329597532749176,0.7900041937828064,-1.6614043712615967,1.2317806482315063,0.09336105734109879
types/ISFJ_Dryzer/img_4.png,-1.19894540309906,-0.9529068470001221,-0.5475859045982361,0.770629346370697,0.9919405579566956,-1.2004433870315552,-0.02863793820142746,-0.5219801664352417,-1.1930150985717773,1.8569378852844238,-2.635612726211548,-0.14254732429981232,-0.4316624402999878,-1.1553120613098145,1.2142291069030762,-1.2773581743240356,-0.8303947448730469,-0.3763164281845093,-0.7219159603118896,-0.5692956447601318,1.727790355682373,-0.433057963848114,-0.16731005907058716,0.6818882822990417,1.2834370136260986,0.3655993938446045,1.2229257822036743,0.24152450263500214,1.3492058515548706,-1.7893620729446411,0.037329480051994324,0.13758410513401031,0.49047839641571045,-0.26033633947372437,-1.070848822593689,-0.8142746686935425,-1.772334337234497,-1.1595557928085327,-1.139878511428833,-2.1463146209716797,0.5914559960365295,0.19887596368789673,-1.4202876091003418,0.8144727945327759,-1.1069135665893555,-0.3530738651752472,-0.25459545850753784,0.20242591202259064,-0.8723025918006897,-0.26913487911224365,-0.9730406403541565,1.4477603435516357,-0.013109222054481506,0.12988653779029846,1.582308053970337,-0.4903295934200287,1.018225908279419,-1.1489168405532837,-1.402860164642334,-0.6033631563186646,-0.9247187376022339,-2.710437774658203,-0.5410905480384827,-0.22994282841682434,-0.8209772706031799,0.3597713112831116,0.02502010017633438,-0.27863723039627075,-0.4592214822769165,0.28023993968963623,-0.7592529654502869,-0.60356605052948,-0.3946004807949066,-1.8401719331741333,1.6223926544189453,-0.889729917049408,-0.16588237881660461,0.6018345952033997,-0.5828877687454224,1.2952295541763306,-1.3558263778686523,1.2291234731674194,1.0757943391799927,-0.8706120252609253,0.3668208718299866,3.1255340576171875,-1.6120755672454834,0.3022456765174866,1.2516080141067505,0.9091570973396301,0.8863381743431091,-0.68574059009552,0.2765146791934967,1.231112003326416,2.2877583503723145,-1.6215460300445557,-0.37363100051879883,-0.35322239995002747,0.8682210445404053,-0.18368147313594818,0.37936872243881226,1.0624325275421143,0.17731812596321106,1.2886807918548584,0.8195548057556152,-1.3093891143798828,0.03048444539308548,1.0075767040252686,0.47045987844467163,0.9551998972892761,-2.8024351596832275,0.8373937606811523,-0.752663254737854,0.5327147245407104,-0.3276383876800537,-0.8454735279083252,-0.7533673048019409,-0.1398915946483612,0.5499241352081299,-1.3449695110321045,1.8349143266677856,0.4713284373283386,-1.0186313390731812,-0.9661415815353394,0.02001173049211502,-0.5372515916824341,0.7272034287452698,2.3597190380096436
